svm_type c_svc
kernel_type rbf
gamma 0.0833333
nr_class 12
total_sv 66
rho 0.386618 0.376509 0.428202 0.422181 0.280053 0.497457 0.341121 0.381034 0.385397 0.446974 0.379843 -0.0117721 0.0498794 0.0428926 -0.11952 0.131705 -0.0523071 -0.00973134 -0.00140871 0.0730662 -0.00793965 0.0634719 0.0543176 -0.109134 0.143728 -0.0405367 0.00207794 0.0104882 0.0847234 0.00395862 -0.00747958 -0.168426 0.0822952 -0.102096 -0.059699 -0.0513248 0.0232406 -0.0577728 -0.16116 0.089689 -0.0945746 -0.0522543 -0.0439392 0.0305543 -0.0503973 0.248654 0.0676113 0.109867 0.12574 0.19072 0.111638 -0.182799 -0.151168 -0.133102 -0.0592679 -0.139477 0.042589 0.0509017 0.124897 0.0444415 0.00840388 0.0827481 0.00183848 0.0743432 -0.00648512 -0.0808999
label 0 1 2 3 4 5 6 7 8 9 10 11
nr_sv 3 7 5 5 5 4 6 5 6 6 8 6
SV
0.08591352664909674 0.08236770666829341 0.08682633238095314 0.0868396337312161 0.07658542140581064 0.111890230651182 0.07755817635505197 0.09298558378892394 0.08641039692033767 0.08951723607972085 0.08225950746092039 1:9 2:13 3:7 4:6 5:4 6:4 7:4 8:6 9:8 10:13 11:9 12:1 
0.7514479313906124 0.7469304647482635 0.7737190490306337 0.7708971473146589 0.6943905390798688 0.7894593028541781 0.7285364704646291 0.7440793060579387 0.7498849775268613 0.7845458372634703 0.748584947113154 1:9 2:13 3:7 4:6 5:4 6:4 7:4 8:6 9:8 10:14 11:10 12:1 
0.7219059711765814 0.719462431847135 0.7458973054067473 0.7422783538924895 0.6689217923815748 0.7931296974571571 0.702743488096032 0.7258564082624085 0.7219717958336166 0.753519607257166 0.7210446483462497 1:9 2:13 3:7 4:6 5:4 6:4 7:4 8:6 9:8 10:13 11:9 
-0.2100668622546139 0.3369356694374375 0.362629997196982 0.3563814924345431 0.3014678885810594 0.3850157684013454 0.3200107995763694 0.3355521686209376 0.3434251460368772 0.3628124901417544 0.3404412232374819 1:2 2:4 3:5 4:4 5:4 6:17 7:17 8:3 9:4 10:3 11:2 
-0.3581887333321666 0.5759609522105112 0.6109680133120238 0.6517549708691456 0.513362727905132 0.6590589571676027 0.5525086564404659 0.5764574489018904 0.5812049578361749 0.6238718413313873 0.5776559198149136 2:2 3:2 4:4 5:5 6:4 7:4 8:17 9:17 10:2 11:2 12:2 
-0.1569108105935743 0.2547492988012747 0.2681270825522609 0.2688419743477822 0.2267263684429549 0.2924788783619157 0.2473252360610264 0.2569317991092369 0.2563098660096806 0.2791343713094759 0.2544449043135266 1:2 2:4 3:5 4:4 5:4 6:17 7:17 8:3 9:3 10:3 11:3 12:1 
-0.2804503790488867 0.4521614914369801 0.4802739778233621 0.4767159085397761 0.4026273118622578 0.5179829124098367 0.4337666192385912 0.4531729147873035 0.4572506242538481 0.4915404319689247 0.4542020568499406 1:3 2:5 3:5 4:4 5:4 6:17 7:17 8:2 9:2 10:2 11:2 
-0.1037785556299453 0.1656711348911572 0.1777158769721919 0.1751254228405656 0.1476150930743007 0.1891925589831764 0.1558592268410837 0.164498074894236 0.1676624811848297 0.1775717164494113 0.1664667564671201 1:2 2:4 3:5 4:4 5:4 6:17 7:17 8:2 9:2 10:2 11:2 12:1 
-0.09326847828428216 0.1517853720220189 0.1570694711275825 0.1593982774948118 0.1339914084671992 0.1741983093020602 0.148154672025081 0.1538964846482788 0.1508447832895648 0.1670758386835325 0.1506892381990478 1:2 2:4 3:5 4:4 5:4 6:17 7:17 8:2 9:4 10:2 11:2 
-0.3566036100728216 0.5754058107711907 0.6124170776551426 0.5829497361246914 0.512456694909483 0.6590589571676025 0.5520646614438842 0.5773416199603671 0.5824388152888079 0.6263911402642364 0.5783515442280661 3:2 4:4 5:5 6:4 7:4 8:17 9:17 10:2 11:2 12:2 
-0.3380843722968255 -0.5484676992590682 0.5613054479516771 0.5716735234604724 0.4685692793737191 0.6201616738213841 0.5224838814535988 0.543228232694102 0.538042884474055 0.5874197444044057 0.5428332434453026 1:5 2:6 3:7 4:7 5:8 6:8 7:7 8:7 9:10 10:6 
-0.3253233393029252 -0.5278560311204584 0.537401378098623 0.5508153439686762 0.448975529050972 0.597326795201528 0.4961570712626665 0.5215372256755212 0.525774684389117 0.5651967416767424 0.5228645209843999 1:5 2:6 3:8 4:7 5:7 6:7 7:7 8:7 9:10 10:6 
-0.4233240038271704 -0.6872506479790926 0.6993504323759785 0.7154362228226598 0.6204424675047879 0.7853852509757933 0.6504200946870246 0.6821918741895022 0.689671300165374 0.7359782069368911 0.682006220679457 3:6 4:7 5:8 6:8 7:8 8:8 9:8 10:8 11:11 12:6 
-0.03808617986635981 -0.06197828339357197 0.1114769614713595 0.0635888060849558 0.09695770146610111 0.06921709591526401 0.06225908874099827 0.06248845816424132 0.08724278419142001 0.06741355578916802 0.06342720465296593 1:5 2:6 3:7 4:7 5:7 6:7 7:7 8:7 9:10 10:6 
-0.423942707970411 -0.6871170678183793 0.7919283831006381 0.7164273455223596 0.609184033056494 0.7762904541229384 0.6549168533211701 0.6802625269544484 0.6866530782111924 0.737816069236787 0.6814927755310149 3:5 4:6 5:7 6:7 7:7 8:7 9:7 10:7 11:10 12:6 
-0.4864878255419748 -0.8096607020974405 -0.8027809345954585 0.8454979082718895 0.7086373642075725 0.9225917291631712 0.7653841730401196 0.8009058829120425 0.8080887440746263 0.8715123463399157 0.802821511583974 1:4 2:4 3:6 4:6 5:6 6:6 7:6 8:9 9:10 10:10 11:4 12:5 
-0.1656147125070593 -0.2746980363038485 -0.2412418132096229 0.2867862773594222 0.2398798078492839 0.3128696786502135 0.2583468642601004 0.2726892756744352 0.2749309952573371 0.296367925034926 0.2732322655249427 1:4 2:4 3:6 4:6 5:6 6:6 7:6 8:9 9:10 10:11 11:5 12:1 
-0 -0 -0 0 0 0.09042476130429687 0 0 0 0.03379752510805059 0 2:2 3:4 4:4 5:6 6:6 7:6 8:6 9:6 10:9 11:10 12:10 
-0.5718451432411374 -0.9497872029310495 -0.9901919061655555 0.9928067497273511 0.8320644545531967 0.9919671468997439 0.9002131955204477 0.9408076295235054 0.9495105300687153 0.9894334869734239 0.9422634117941887 2:2 3:4 4:4 5:6 6:6 7:6 8:6 9:6 10:9 11:10 12:10 
-0.3824950055281627 -0.6350555553072077 -0.6672479490276392 0.6637341853069555 0.5565100009851046 0.7238402358543017 0.6025672152146923 0.6286078123751184 0.6345249513878986 0.6834652865612141 0.6289075603401334 1:4 2:4 3:6 4:6 5:6 6:6 7:6 8:9 9:10 10:10 11:4 
-0.1512570811871466 -0.2422530519993471 -0.2476294036053449 -0.264832300554203 0.2192450206633548 0.2848214556891511 0.2370264463961815 0.2481089255287422 0.250633228485298 0.2693538555047079 0.2480985416300421 1:4 2:5 3:5 4:6 5:5 6:6 7:6 8:18 9:18 10:2 11:2 12:2 
-0.3594736180840771 -0.5956528528433098 -0.5881329080311846 -0.6262080394279652 0.5221655523045868 0.6791591766006957 0.5633364822300386 0.5901750568878286 0.595440018857846 0.6410023514673039 0.5910234868652223 2:2 3:4 4:5 5:6 6:7 7:5 8:5 9:6 10:18 11:18 12:3 
-0.3929413704962899 -0.6424940003701628 -0.6422512445553883 -0.6842177178778788 0.5697966000433281 0.7403114144205544 0.6155236698941142 0.6439411581867998 0.64924039312909 0.7003505613552269 0.6454880806848244 1:5 2:6 3:6 4:6 5:5 6:6 7:6 8:18 9:18 10:4 11:3 12:3 
-0.3368694470010969 -0.5951150245951863 -0.5510234654287918 -0.5858964410191587 0.4890578502719797 0.6347828019588615 0.5274364125298124 0.5517806894974897 0.5563010783110075 0.6001760451562779 0.5529525110587133 1:4 2:5 3:5 4:6 5:5 6:5 7:5 8:17 9:17 10:2 11:2 12:2 
-0.359473618169754 -0.5956528528433099 -0.5889042202384145 -0.6276706217864125 0.5221655733784174 0.6773343678867819 0.56333648997949 0.5893820398333796 0.5946849415514646 0.6422579684217099 0.5910234868652222 2:2 3:4 4:5 5:5 6:6 7:5 8:5 9:5 10:17 11:17 12:2 
-0 -0.1190676853815275 -0.1462790050378066 -0.2497562353438725 -0.2027755348408393 0.4511806151245496 0.1417253247570002 0.1967810113081491 0.2935211818561972 0.2185891066442081 0.1363732038682372 2:2 3:11 4:9 5:6 6:6 7:6 8:6 9:8 10:8 11:10 12:6 
-0.7200518880729895 -1 -0.9781238118688677 -0.9189568469417668 -0.9585448387038906 0.8088865186353575 0.9260641575788493 0.9130666888419956 0.9389437113294685 0.9722125456969098 0.975377983512111 2:2 3:11 4:9 5:6 6:6 7:6 8:6 9:8 10:8 11:10 12:6 
-0 -0.1420135361132031 -0.120698824467972 -0.1910967821795614 -0.1611102231169369 0.2493274447043516 0.075271679560551 0.1122546836870664 0.3894052917843639 0.1908692605044843 0.1368072911297311 1:11 2:9 3:6 4:6 5:6 6:6 7:8 8:8 9:10 10:6 
-0.7198458647942647 -0.9771662717476562 -0.9990273690774281 -0.9772817631299568 -1 1 0.9921450261881275 0.9974214530734267 0.9764642207950991 1 0.9749438961811114 1:11 2:9 3:6 4:6 5:6 6:6 7:8 8:8 9:10 10:6 
-0.2964933611286026 -0.4690627566504131 -0.4633043598535199 -0.4956608642843736 -0.4922438657274714 -0.4072704891385179 0.4423156400578973 0.3689540927751546 0.4691925923381448 0.5091951179837991 0.466960491016878 1:9 2:13 3:9 4:7 5:6 6:6 7:6 8:8 9:8 10:9 11:6 
-0.4248400353862684 -0.7393745737632251 -0.7292588658288376 -0.7814806845615171 -0.7759277087922387 -0.6399755087223296 0.6964335242384447 0.7800273393910341 0.7386809049926693 0.8014476103402238 0.7332947542420134 1:8 2:12 3:9 4:7 5:8 6:8 7:8 8:10 9:10 10:11 11:7 12:1 
-0.3320086776396707 -0.5732924208454919 -0.5703213242521047 -0.6065312806285019 -0.6007896315553942 -0.4915713127590005 0.5407883402499847 0.7189593155820647 0.5733470744395954 0.6217103059502712 0.568774262744413 3:8 4:12 5:10 6:8 7:7 8:7 9:7 10:9 11:9 12:10 
-0.2537909673241479 -0.3941343830636991 -0.389196498786357 -0.4182673880637234 -0.4132423227267788 -0.3397452605869904 0.3714131109236194 0.6546636721433962 0.3937410208531724 0.4282620469960937 0.3915226680628648 1:8 2:12 3:10 4:8 5:6 6:6 7:6 8:8 9:9 10:10 11:7 
-0.05533751184450451 -0.1272015893935767 -0.1245603532943311 -0.1329528816862466 -0.1323054854308764 -0.1108576082506708 0.1180835280248921 0.07759687467524659 0.1261392594104139 0.1357352120478527 0.1227167318485115 1:8 2:12 3:9 4:7 5:6 6:6 7:6 8:8 9:8 10:9 11:6 
-0.3320086776393231 -0.5739206180771337 -0.5717398680217574 -0.6068004526473645 -0.601900202323285 -0.5199743990067496 0.5396498728640954 0.5591836026362075 0.5730125436484462 0.6213660444346345 0.5681986463213555 3:8 4:12 5:9 6:7 7:6 8:6 9:6 10:8 11:8 12:9 
-0.3432081677103562 -0.5488299509669334 -0.542359442410898 -0.5738508122225181 -0.5694308631107352 -0.4861887870665879 -0.6159548866435911 0.5404472158477612 0.5452013575645497 0.5853866979292833 0.5425768082341748 1:2 2:2 3:2 4:5 5:8 6:8 7:9 8:8 9:7 10:5 11:2 12:1 
-0.35615150279428 -0.5706291931684188 -0.5622738348361932 -0.5968221497202822 -0.5935746361004893 -0.5060630482281394 -0.6407333829713568 0.5621815020877321 0.5680255697204136 0.6092623753211959 0.5654208010330167 1:2 2:2 3:2 4:5 5:8 6:9 7:10 8:8 9:7 10:5 11:2 
-0.3831153819398438 -0.612951734383121 -0.6072881979221899 -0.6439227728175999 -0.6378702132621195 -0.5443362901432035 -0.689610421371964 0.6078144157389351 0.6125505827378954 0.6542708828210348 0.6084869123509942 3:2 4:2 5:2 6:5 7:8 8:8 9:10 10:9 11:8 12:6 
-0.04189193700974211 -0.06446073696729474 -0.06714648328319212 -0.06986773865719248 -0.06805235551547027 -0.05637462414515486 -0.07395358318832697 0.06986371178831491 0.06821373437349615 0.07061006166986424 0.06721105438148327 1:2 2:2 3:2 4:5 5:8 6:8 7:9 8:8 9:7 10:5 11:2 
-0.384471145461491 -0.6128182561407337 -0.607169031012985 -0.6420479746177672 -0.6377314330408224 -0.5422434385014424 -0.6884317421836947 0.6065779145871785 0.6124173547482646 0.6564589288122804 0.6083544741258256 3:2 4:2 5:2 6:5 7:8 8:8 9:9 10:8 11:7 12:5 
-0.05501308731886291 -0.105932750594112 -0.09830953427761724 -0.1110428053879068 -0.1096404233699217 -0.09213198449346711 -0.009793999540570898 -0.09831239568694836 0.1063843601310965 0.1124760942386198 0.1038131556359588 1:5 2:11 3:10 4:8 5:6 6:6 7:6 8:6 9:10 10:13 11:8 12:1 
-0.05797673456989096 -0.04050950555137542 -0.04575365999813807 -0.04200096438774079 -0.04314029043964389 -0.03508775181060581 -0.05542030642683106 -0.04022611877455025 0.03999994648575952 0.04386757119007314 0.03854425692394059 1:5 2:11 3:10 4:8 5:6 6:6 7:6 8:6 9:9 10:13 11:8 12:1 
-0.3846459886932454 -0.627667852224745 -0.6228268314312368 -0.6591388365515422 -0.6562169645252575 -0.5541735637898323 -0.8063735243571442 -0.5966305078978245 0.627737856369166 0.6730672388254973 0.6244000603285451 3:5 4:11 5:10 6:9 7:7 8:7 9:7 10:7 11:10 12:13 
-0.3420909142404949 -0.5880184359295727 -0.5819921978675093 -0.6169531552533121 -0.6123134499359633 -0.5191001942057529 -0.8346277761586353 -0.5577067314094892 0.5874972175804483 0.6313130351860069 0.5835972373362731 1:5 2:11 3:10 4:8 5:7 6:7 7:7 8:7 9:10 10:13 11:8 12:1 
-0.3376950213779844 -0.5262225654101259 -0.5198789096564015 -0.5531857937713804 -0.5482503022721614 -0.4648567788211355 -0.7005562796547549 -0.4989520388142796 0.5251747337058693 0.5639412875262507 0.5249241969009357 1:5 2:11 3:10 4:8 5:6 6:6 7:6 8:6 9:9 10:13 11:8 
-0.3854995519087928 -0.6294994012123192 -0.6209471844469123 -0.6606890451332192 -0.6538264393912918 -0.5541735637898441 -0.7526130110651674 -0.5950569674668298 0.6277116300309339 0.674728152253521 0.6232855508512629 3:5 4:11 5:10 6:8 7:6 8:6 9:6 10:6 11:9 12:13 
-0.3696284799163603 -0.6020563342349464 -0.5955356813281644 -0.6335076782273433 -0.6290338123681046 -0.3808934398394833 -0.683409379060973 -0.5722704495117235 -0.5978982335367932 0.6470626861254276 0.5986018818536962 1:11 2:7 3:7 4:7 5:7 6:7 7:7 8:6 9:13 10:9 11:1 12:1 
-0.08928837916222937 -0.1455751493430683 -0.1438860502977504 -0.1534867870646006 -0.1517989190985043 -0.2224102369649641 -0.1653620549257118 -0.1364890883742535 -0.1425684326591835 0.156639421623535 0.1434618810519175 1:11 2:7 3:7 4:6 5:6 6:6 7:7 8:6 9:12 10:8 11:1 12:1 
-0.3701249353236519 -0.6038987520901986 -0.5976275427986647 -0.6341613566416113 -0.6280724691778913 -0.4845277626983194 -0.6836390306876853 -0.5723024452296149 -0.5978531345537126 0.6470495746561697 0.5990473989845851 2:5 3:11 4:7 5:7 6:6 7:7 8:7 9:7 10:7 11:13 12:9 
-0.3220978816466672 -0.5216228471378275 -0.516729077015727 -0.5454632582760539 -0.5390726382143665 -0.5966328798798247 -0.5919838567531248 -0.4944085500047687 -0.5158691862926917 0.5590957877112942 0.5172010346241117 2:5 3:11 4:7 5:7 6:6 7:6 8:6 9:8 10:6 11:12 12:8 
-0.07417045557124628 -0.1235084679982267 -0.1230945511776103 -0.1322158167207822 -0.1342722026454471 -0.1355246448190968 -0.1383412628403727 -0.1166576275763922 -0.1229596905842271 0.133543308500364 0.1230576958778319 2:5 3:11 4:7 5:7 6:6 7:6 8:6 9:7 10:6 11:12 12:8 
-0.3329570386606604 -0.5424751230955157 -0.5505118288132417 -0.5682203238581858 -0.5640496188303924 -0.7783454415634403 -0.6113778114145743 -0.5142804384478668 -0.5373570666766654 0.5802931507092812 0.5376843728478926 1:11 2:7 3:7 4:6 5:6 6:6 7:7 8:6 9:12 10:8 
-0.4721103278246829 -0.7918430984517439 -0.7818270008527761 -0.8343684325704676 -0.827801535410607 -0.6908025045362726 -0.9050924454035537 -0.7481139701194371 -0.7835409784588638 -0.7903265871786627 0.7852548130519412 1:5 2:7 3:16 4:12 5:8 6:3 7:16 8:15 11:16 12:16 
-0.2271621001122363 -0.3814561876747756 -0.3769994083440351 -0.403061323150932 -0.398298502626499 -0.3332100033358841 -0.4355154405963835 -0.3601696726691928 -0.3778393876068164 -0.3799156922963163 0.3782540705386315 1:5 2:7 3:16 4:12 5:3 6:3 7:16 8:15 9:1 10:1 11:17 12:17 
-0.01294757288117152 -0.02211816502605921 -0.02100579494229919 -0.02153021573604778 -0.02328917309429473 -0.01925276785261592 -0.02527670750031462 -0.01998481186984059 -0.02076931089170538 -0.02338008071767639 0.0209260357253346 1:5 2:7 3:16 4:12 5:3 6:4 7:16 8:15 9:1 10:1 11:16 12:16 
-0.1991681875215544 -0.3331081620259738 -0.3291690518996311 -0.3515023269880027 -0.3494412264743762 -0.2913200958925812 -0.3812415970644819 -0.3151347282312166 -0.3305697948520426 -0.3323424500253838 0.3320419233978165 1:6 2:8 3:17 4:13 5:3 6:3 7:16 8:16 9:1 11:16 12:16 
-0.1650466634330424 -0.2733127997363151 -0.2726505204189987 -0.2909497816484309 -0.2891616075631363 -0.2413138112713251 -0.3161862154308572 -0.2612283961043803 -0.2730766476693318 -0.2804028983902045 0.2733203799238259 1:5 2:7 3:16 4:12 5:1 6:1 7:14 8:14 11:15 12:15 
-0.05727298474729516 -0.09621891268425252 -0.09499511672483163 -0.1004958270810754 -0.09829825059250176 -0.08373628635852493 -0.1105112203605389 -0.09041751812040409 -0.09424059653487496 -0.09665968546549618 0.09333185124024884 1:6 2:8 3:17 4:13 5:4 6:4 7:16 8:15 11:16 12:16 
-0.3303363515716424 -0.5564843042739677 -0.5463447727747811 -0.5831601067136106 -0.5788744019189437 -0.4831926562936218 -0.6317146428548504 -0.5221109735530811 -0.5478332375089101 -0.5479459619577082 0.5494157119589197 1:4 2:7 3:16 4:12 5:1 6:1 7:14 8:14 11:15 12:15 
-0.1635384925087321 -0.2738562002756345 -0.2708326520866413 -0.2895085561289633 -0.2879760842248681 -0.2388427873047764 -0.3121780685418948 -0.2588288758861062 -0.2715234256974239 -0.2727105732946237 0.2729476308501644 1:6 2:8 3:16 4:12 5:4 6:4 7:17 8:15 11:16 12:16 
-0.2202943930833022 -0.3561494983798482 -0.3529589527248548 -0.3749175120000514 -0.3727135385484372 -0.3148335959693658 -0.4038065308457799 -0.3388240571359963 -0.3521497406918868 -0.3568412531058332 -0.3833271117622163 1:8 2:3 3:4 4:14 5:13 6:8 7:9 8:5 9:5 10:9 11:10 12:14 
-0.195137998413525 -0.3176258633770693 -0.3135204693086098 -0.3334446731894621 -0.3300486338092755 -0.2800225190347857 -0.3595545915409163 -0.3016269641079016 -0.3151640545144087 -0.3171207053610269 -0.3411961593046804 1:9 2:3 3:4 4:15 5:14 6:9 7:9 8:6 9:6 10:11 11:11 12:14 
-0.2481493165473576 -0.4038082707830695 -0.3991397282833329 -0.4233200788698417 -0.4210731614976947 -0.3557436560092146 -0.4564964973488195 -0.3822241186312625 -0.4005346342832242 -0.4030593595382709 -0.43297593288348 1:8 2:2 3:3 4:14 5:13 6:8 7:9 8:6 9:7 10:11 11:10 12:14 
-0.290322316968907 -0.4720158925449527 -0.4666745353043891 -0.4951763172433022 -0.492255307035255 -0.4157240959252453 -0.5326208118532622 -0.447608038990648 -0.4667982330807817 -0.4714029392895827 -0.5052129845324587 1:9 2:3 3:4 4:15 5:14 6:9 7:10 8:7 9:7 10:10 11:10 12:14 
-0.1336594890653333 -0.2206833919538448 -0.2156337407698231 -0.2287283811428191 -0.2269164328535941 -0.193194504263404 -0.2471002335654562 -0.2070989547055667 -0.2188296826144359 -0.2174780111966728 -0.2348346591965972 1:7 2:1 3:3 4:14 5:13 6:8 7:9 8:4 9:4 10:8 11:9 12:14 
-0.4643255888418991 -0.751968726071312 -0.7446965389021306 -0.7916377867977624 -0.7855790333597679 -0.6639840034891755 -0.8518888890818025 -0.7146679165541197 -0.7450881127921789 -0.7531519967486486 -0.8079455690074502 1:7 3:2 4:14 5:13 6:8 7:9 8:4 9:4 10:8 11:8 12:13 
