svm_type c_svc
kernel_type rbf
gamma 0.0769231
nr_class 11
total_sv 56
rho -0.00205566 -0.0122066 -0.0462586 0.0563846 0.00146844 0.0383373 0.0395262 0.0235633 0.0306125 0.0144142 0.0455525 -0.0474358 0.143335 0.00350275 0.0216513 0.0438019 0.011543 0.0771565 0.0143439 -0.0361522 0.0611312 0.0365554 0.0344884 0.088512 0.0472268 0.0588532 0.0258132 0.0812403 0.0531991 0.0663906 0.0925407 0.0736323 0.0832791 0.0624187 -0.0160475 -8.3674e-05 0.0403961 -0.0281603 0.0429245 -0.0198659 0.0229176 0.105529 0.0892676 0.0280203 0.0122965 0.0197658 0.00303617 0.0160028 -0.0051227 -0.0565737 -0.0212524 -0.0337072 0.038201 -0.0114263 -0.0234816
label 1 2 3 4 5 6 7 8 9 0 11
nr_sv 4 6 4 2 6 7 3 8 6 6 4
SV
0.6873872509671239 0.456779101257624 0.4770924034470579 0.3941098563681415 0.52983866091925 0.3571463710354854 0.5703406400641117 0.5495633390622366 0.7120270583738727 0.5232196555855906 1:2 2:1 3:1 4:1 5:1 6:1 7:4 8:1 9:2 10:5 11:3 
0.03230397833093659 0.2791779836656206 0.3205832598115138 0.1892943328425815 0.2339816075333782 0.416946802067814 0.2848809301823799 0.3085551233889889 0.1807855427335244 0.3318996343621698 1:3 2:1 3:1 4:1 5:1 6:1 7:3 9:2 10:5 11:4 
1 0.541322413355343 0.332106810361034 1 0.4905044673224315 0.8406474152347786 0.4285522699082365 0.4038157392780285 0.4762054434922804 0.3608577085010552 1:3 2:1 3:1 4:1 5:1 6:1 7:3 8:1 9:2 10:4 11:4 
0 0.01418157759468275 0 0.2136762606239058 0 0 0 0 0 0 1:3 2:1 3:1 4:1 5:1 6:1 7:4 8:1 9:2 10:5 11:4 
-0.3774164558280446 0 0.4514217714362959 0 0.3937614080864802 0.8346242291597944 0.4279268205169321 0.5448073600131483 0.14688737372773 0.5084761118142277 1:4 2:1 3:1 5:1 7:4 8:1 9:2 10:3 11:2 12:3 
-0 0 0 0 0 0 0 0 0.39388189258836 0 1:3 2:1 3:1 4:1 5:1 7:4 8:1 9:1 10:3 11:3 12:3 
-0.1351466198375018 0.6091850989563684 0.3657771507166642 0.8554224874109506 0.5776876601873701 0.3030696578273903 0.4497113139631924 0.7717079418860444 0.5222427115775555 0.3457508914679079 1:3 2:1 3:1 4:1 5:1 7:4 8:1 9:2 10:2 11:3 12:3 
-0.8647570485284206 0.1140197020788128 0.3372266259398433 0 0.2155412182967262 0.6437116585254442 0.3542202400066882 0 1 0.3790071857987503 1:3 2:1 3:1 4:1 5:1 7:4 8:1 9:1 10:3 11:3 12:3 
-0 0 0 0.737449376231926 0 0 0 0 0 0 1:4 2:1 3:1 4:1 5:1 7:4 8:1 9:2 10:3 11:3 12:3 
-0.3423711051040936 0.9730527571435392 0 0.9981960430223092 0.2185807887741584 0.02110702957747083 0.1985472593181642 0.2829211030618067 0 0 1:4 2:1 3:1 4:1 5:1 7:4 8:1 9:2 10:3 11:3 12:3 
-0.7505002961523769 -0.801584160176201 0.4826850417842076 1 0.4631732416665481 0.6152305351444725 0.1211128931155252 0.03316315357997156 0.440359422311319 0.529981520552033 1:4 2:1 3:1 4:3 5:1 6:2 7:4 8:1 9:3 10:3 11:5 12:4 
-0 -0.2696545035246717 0.04875260641627902 0 0.3793679922529852 0.1734196432658365 0.9007173378387286 0.8023055696144046 0 0.05310707614150872 1:4 2:1 3:1 4:3 5:1 6:2 7:4 8:1 9:3 10:3 11:4 12:5 
-0.5409607797208934 -0.6250188944778478 0.6110640614418941 1 1 0.5085798557909086 1 1 1 0.5796839321438086 1:3 2:1 3:2 4:3 5:1 6:2 7:4 8:1 9:3 10:3 11:4 12:5 
-0 -0 0.01481851864102829 0.7618600163029627 0.009072575469299616 0 0.1032297617227124 0 0 0.03849704646297647 1:4 2:1 3:2 4:3 5:1 6:2 7:4 8:1 9:3 10:3 11:5 12:5 
-0.5728401500295202 -0.6411960391263659 -0.6785265309649756 0.6660088253791989 0.8116533125955497 0.6273203551143218 0.8242422110516009 0.8045932258515923 0.7635984652857046 0.6184317660405484 1:1 2:2 3:2 4:2 5:5 6:1 7:1 8:1 9:2 10:2 11:3 12:6 
-0.5569423235900854 -0.5132295089664374 -0.4787936973184334 0.5274360924437842 0.4230424306587136 0.540294530028175 0.4489699549577373 0.4821022704399452 0.4715243102498864 0.6487704521475263 1:1 2:2 3:2 4:2 5:6 6:1 7:1 8:1 9:2 10:2 11:3 12:6 13:1 
-0 -0.6204993055236583 -1 -0.09684624777201949 0.4336247180062861 0 0.7021162527014042 1 0.06252499614531207 0.07421745891352007 1:4 2:1 3:2 4:2 5:1 6:1 7:4 8:1 9:4 10:3 11:4 12:3 
-1 -1 -0 -0.2452939830948166 0 0.7246129740487014 0 0.187524962002319 0.3959206309441514 0.2989749560451985 1:4 2:1 3:2 4:1 5:1 6:1 7:4 8:1 9:4 10:3 11:4 12:2 
-0.08772789996722759 -0 -0 -0.2648720632024475 0 0 0.148626191169923 0 0.1407699598672616 0.2733436295680263 1:4 2:1 3:3 4:1 5:1 6:1 7:4 8:1 9:4 10:3 11:5 12:2 
-0 -0 -0 -0 0.6481786105831432 0 0 0.1046726554964388 0 0 1:4 2:1 3:3 4:2 5:1 6:1 7:3 8:1 9:4 10:3 11:4 12:3 
-0 -0 -0.7618600163029627 -0.0439373681710556 0 0 0 0 0 0.05993767681895915 1:4 2:1 3:3 4:2 5:1 6:1 7:4 8:1 9:4 10:3 11:5 12:3 
-0.7093525498674011 -0.9705686011415275 -1 -0.5424952555826438 1 0.7601796254781987 1 0.6492961827143056 1 0.5647833836135326 1:3 2:1 3:3 4:2 5:1 6:1 7:3 8:1 9:3 10:3 11:4 12:3 
-0.3019730951035143 -0.1588215137539143 -0 -0.3593311704110427 -0 0.2192927002342915 1 0.4133165797973261 0.7462470412400424 0.4062361558071936 1:2 2:1 3:3 4:3 5:2 6:2 7:3 8:3 9:4 10:3 11:2 12:4 
-0.5494640401552993 -0.593071328081576 -0.5180750990905933 -0.6047729996267364 -0.7167239320731341 0.6021471695427724 0 0.04208069799081991 0.710541177606407 0.5484890396986881 1:3 2:1 3:3 4:3 5:2 6:2 7:2 8:3 9:3 10:3 11:3 12:4 
-0 -0 -0 -0 -0 0 0 0.4237717166940621 0 0 1:3 2:1 3:2 4:3 5:2 6:2 7:3 8:3 9:4 10:3 11:2 12:4 
-0 -0 -0 -0 -0 0 0.9224349420261085 0 0 0 1:3 2:1 3:3 4:3 5:2 6:2 7:3 8:3 9:4 10:3 11:3 12:4 
-0 -0 -0 -0 -0.1770477512701114 0 1 0 0 0 1:3 2:1 3:3 4:3 5:2 6:2 7:3 8:3 9:4 10:3 11:3 12:4 
-0 -0 -0.7482856240810044 -0 -0.9949354081551121 0 1 0.2685065293269662 0 0 1:3 2:1 3:3 4:3 5:2 6:2 7:3 8:3 9:4 10:3 11:3 12:4 
-0.402887600516246 -0.6536782335092446 -0.585253086217235 -0.2705915732164844 -0.1930962370910717 0.4732403307013181 0.8244325258151848 0.9755296369875576 0.123220366922082 0.3068188088865755 1:3 2:1 3:2 4:3 5:2 6:2 7:3 8:3 9:4 10:3 11:2 12:4 
-0.973591942879397 -1 -0.6417913093192466 -0.6040829634088067 -0.7232994136468263 -0.658938714071914 0.6548363940283003 0.6395305168117645 0.8096909093610082 0.6360974700694559 1:3 2:1 4:1 5:1 6:1 7:1 9:1 10:3 11:2 12:2 
-0.6411486454586809 -0.7949714778041533 -0.655438724881971 -0.56353192173369 -0.7592829352735826 -0.635741486406468 0.6353835854504645 0.6702272983401649 0.5630944854258898 0.6095190338753617 1:5 2:1 4:1 5:1 6:1 7:1 9:2 10:3 11:2 12:2 13:1 
-0 -0.007541097285946334 -0 -0 -0.002210250606491292 -0 0 0 0 0 1:4 2:1 4:1 5:1 6:1 7:1 9:2 10:3 11:2 12:2 
-0 -0 -1 -0 -0 -0 -0 0 0 0 1:3 2:2 3:2 4:3 5:2 6:2 7:4 8:3 9:3 10:4 11:3 12:5 
-0.2889603416201572 -0.4527167484671012 -0.1196669137385739 -0.2882145239003976 -0.6425184873787143 -0.1660496245965642 -0.2862337994148352 0.4302307479226295 0.5420699252280659 0.3995689810215726 1:3 2:2 3:3 4:2 5:2 6:2 7:4 8:3 9:3 10:4 11:3 12:5 
-0 -0 -0 -0 -0 -0.1782789605643522 -0 0.1884749406283411 0 0 1:2 2:2 3:3 4:3 5:2 6:2 7:4 8:3 9:4 10:4 11:2 12:5 
-0.2871738364060511 -0.3962271440632431 -0.5571232496615576 -0.2866970092187108 -0.2565614516531132 -0.6849640193613786 -0.3269139654101394 0.577922559068482 0.2379556223633666 0.2055073800335487 1:3 2:2 3:2 4:3 5:2 6:2 7:4 8:3 9:3 10:4 11:3 12:5 
-0.3852067892452542 -0.4075207259036074 -0.3559772398747608 -0.5888247235831809 -0.3169912763234172 -1 -0.4679057661776304 1 0.6458576150089393 0.5218859909246369 1:2 2:2 3:3 4:3 5:2 6:2 7:3 8:3 9:4 10:3 11:2 12:5 
-0.3224328728832657 -0.1739410153710253 -0.09229258940207423 -0.109475909307049 -0.6346712285160824 -1 -0.2091664484761598 0.1257353035536366 0.2353431056354984 0.2316751457909197 1:2 2:2 3:3 4:3 5:2 6:2 7:4 8:3 9:4 10:4 11:3 12:4 
-0 -0 -0 -0 -0 -0.7586871783146462 -0 0 0 0 1:3 2:2 3:3 4:3 5:2 6:2 7:4 8:3 9:4 10:4 11:3 12:5 
-0 -0 -0 -0 -0 -0.9588876850043522 -0 0 0 0 1:3 2:2 3:3 4:3 5:2 6:2 7:4 8:3 9:4 10:4 11:3 12:5 
-0.3609884512162915 -0.3606222703270697 -0.1651221087649675 -0 -1 -0.7175264862585036 -0.2913495182023567 -0.3488817067615261 0.02239881405188095 0.1748672675569764 1:3 2:2 3:2 4:2 5:2 6:1 7:4 8:1 9:5 10:3 11:2 12:4 13:1 
-0.2240256806477547 -0.8050725623217064 -1 -0.3431337036719403 -0.6797651492483825 -0.731886434236406 -0.3316341585879536 -1 0.9898430871647219 0.3840426608826999 1:3 2:2 3:2 4:2 5:2 6:1 7:4 8:1 9:4 10:3 11:2 12:5 13:1 
-0.1785375359312072 -0.08226329199694257 -0 -0.4483312886508881 -0 -0.1665919701107073 -0.1735121610223947 -0.2380627270511353 0.2248007614227713 0.2185643006231438 1:2 2:2 3:2 4:2 5:3 6:1 7:4 8:1 9:5 10:2 11:2 12:5 13:1 
-0.18426567637974 -0 -0 -0.1534867002202238 -0 -0.08121874234748025 -0.1716762839262432 -0.3061582997657056 0.242264785984216 0.3286951710728882 1:2 2:2 3:2 4:2 5:3 6:1 7:4 8:1 9:5 10:3 11:1 12:5 13:1 
-0 -0 -0.157935400155861 -0 -0 -0 -0 -0 0 0 1:3 2:2 3:2 4:2 5:2 6:1 7:4 8:1 9:5 10:2 11:2 12:5 13:1 
-0.3141168575542608 -0.3514782803152805 -0.5124112142735476 -0.3417438037484852 -0.2617286509646807 -0.4259815278436348 -0.3415856934129813 -0.429260817594722 0.09179046751171432 0.2340823042323709 1:3 2:2 3:1 4:2 5:3 6:1 7:4 8:1 9:5 10:3 11:2 12:5 
-0.2955890700497628 -1 -0.5273775545177549 -0.2390123104297301 -0.2291152110144972 -0.1543131031044449 -0.3794396763285964 -0.2820165623067347 -0.5996894138799325 0.1936839752054191 1:1 2:2 3:2 4:2 5:1 7:4 8:1 9:1 10:3 11:2 12:4 13:1 
-0.01858791456679383 -0 -0 -0.1660144204289693 -0 -0.1406994257283093 -0.1701724951705257 -0.1026929101606399 -0.2354096547986359 0.4827962621661768 1:1 2:2 3:3 4:2 5:1 7:3 8:2 9:1 10:3 11:1 12:4 13:1 
-0.15992630887704 -0.1963442843444622 -0.01155677357521346 -0.1644485928154069 -0.2309492397272423 -0 -0.1174053907392276 -0.06375303666027607 -0.2103120921387571 0.3862001241678452 1:1 2:2 3:3 4:1 5:1 7:4 8:1 9:1 10:3 11:2 12:4 13:1 
-0.5441793157421767 -0.6401068923481703 -0.27368627947156 -0.1833529077449802 -0.5287479667752101 -0.4564810549898128 -0.292560152045336 -0.3133121327874331 -0.167406687510306 0.1028069822783695 1:1 2:1 3:3 4:2 5:1 7:4 8:2 9:1 10:3 11:2 12:3 13:1 
-0.1057314651192129 -0 -0.2562800342779561 -0.1584755623558673 -0.146059546034039 -0.1459957586751076 -0.1479133652211445 -0.1952255924157177 -0.1484889143397766 0.08110542776985825 1:1 2:2 3:3 4:2 7:4 8:2 9:1 10:2 11:2 12:4 13:1 
-0.2450039702446911 -0.2265608012010131 -0.3714587804688343 -0.3238189817606372 -0.4643436234057364 -0.6825192432708568 -0.2652943152820678 -0.7042260339050687 -0.2097911534678964 0.197255596742739 1:1 2:2 3:3 4:2 5:1 7:3 8:2 9:1 10:3 11:2 12:4 
-0.3564032276660075 -0.3433992258768515 -0.3417396382782636 -0.2641819026876069 -0.3595320485239706 -0.290947861197617 -0.3531821039074918 -0.2628821017788915 -0.284582550246915 -0.2306805458682112 1:1 2:5 3:3 5:4 6:1 7:2 8:2 9:2 10:4 11:2 12:3 13:3 
-0.3493780664457118 -0.3652647595105324 -0.3701848109829405 -0.5402158821340162 -0.3673338725430477 -0.3136456869772295 -0.3834527978373506 -0.3114923340223393 -0.4545965935914164 -0.3128294200704519 1:1 2:5 3:2 4:1 5:4 6:1 7:2 8:1 9:2 10:4 11:2 12:4 13:3 
-0.4178878428760377 -0.4536794172439411 -0.4344310721844446 -0.4628044333664514 -0.4802550050595277 -0.5517111140456401 -0.4283486533010354 -0.6882458906211329 -0.5643220236808079 -0.839490617647467 1:1 2:5 3:3 4:1 5:3 6:1 7:2 8:2 9:2 10:4 11:2 12:4 13:2 
-0.09230786146105871 -0.07089078644956089 -0.05491405385467794 -0 -0.06413617883269056 -0.1052393421719707 -0.08063294889893979 -0.0960171713483142 -0.03675053684894001 -0.06084778474427762 1:1 2:5 3:2 4:1 5:4 6:1 7:2 8:2 9:2 10:4 11:2 12:3 13:3 
