svm_type c_svc
kernel_type rbf
gamma 0.0769231
nr_class 10
total_sv 27
rho -0.278299 -0.181032 0.188557 -0.0229483 -0.0901459 -0.230311 -0.224518 0.02524 -0.306847 0 0.361448 0.196837 0 0 0 0.301299 0 0.344987 0.239989 0 0 0 0.214244 0 -0.154946 -0.160464 -0.388022 -0.304502 -0.0921289 -0.372285 -0.204268 -0.0617301 -0.215702 0.0342697 -0.161715 0 0 0.231458 0 0 0.327398 0 0.225755 0 -0.281339
label 1 2 3 5 6 7 8 9 0 11
nr_sv 3 3 2 3 3 2 3 2 3 3
SV
0.8446323841545453 0.6990559859138742 1 0.8039537314615082 1 0.7348166645871875 0.9079622983652947 0.99569478062006 1 1:2 2:1 5:1 7:1 9:1 10:2 11:2 
0.3439889515010268 0 0.3827140583542835 0 0 0.0345312486364394 0 0.04628898669163323 0.6759612360421283 1:1 3:1 5:1 6:1 7:3 8:1 9:1 10:3 11:2 
1 0.6520330534852756 0.9941624305125114 0.9275506420156596 0.7728575002706169 0.9953723729245488 0.775831190764053 1 1 1:1 3:1 5:1 6:1 7:3 8:1 9:1 10:3 11:2 
-0.2491292509481107 0 0 0 0 0 0 0.1771212993994831 0 1:2 3:1 7:3 8:1 10:2 11:1 12:2 
-1 0.3340805848409302 0.8053280185072998 0.5544874467055326 0.5166268599050586 0.5166268599050586 0.2734168211247545 1 0.5166268599050586 1:2 3:1 7:3 8:1 10:2 11:1 12:2 
-0.9394920847074615 1 0.9988412641667306 0.9127196524221363 1 1 1 1 1 1:2 3:1 7:3 8:1 10:2 11:1 12:2 
-0.4556696363415118 -0.3340805848409302 0.8730921408282807 0.9665215507488526 0.5166268599050586 0.8634791664445226 0.1874271646813301 0.5180526308705616 0.3340805848409302 1:3 2:1 3:1 4:2 5:1 6:1 7:2 8:1 9:2 10:2 11:2 12:4 
-0.8954194030576381 -1 1 1 1 1 1 0.9058168208657718 1 1:3 2:1 3:1 4:2 5:1 6:1 7:2 8:1 9:2 10:2 11:2 12:4 
-0.9845649308223636 -0.782321269968155 -1 1 1 0.9052648195013457 0.8033017089793667 1 0.7055141298148924 1:3 2:1 3:1 4:1 7:1 9:3 11:2 12:2 
-0.3962956938615148 -0.02389464187742986 -0 0.01272884585978374 0 0.001959264436379902 0 0.01326899617030271 0.2934794906669881 1:2 2:1 3:3 4:1 7:3 8:1 9:2 10:3 11:3 12:1 
-0.9960158641829164 -0.9979533708284456 -0.8730921408282807 1 0.914547685463306 1 0.6971230123159147 1 0.9970595079184104 1:2 2:1 3:3 4:1 7:3 8:1 9:2 10:3 11:3 12:1 
-0 -0 -0 -0.01272884585978374 0 1 0 0.02980842599684314 0 1:1 3:2 4:3 5:1 7:1 8:1 9:2 10:2 12:3 
-0.7315043734771678 -0.7336035495638344 -0.9665215507488526 -1 0.677553767162915 1 0.8658973282352447 1 0.6851400882751012 1:1 3:2 4:3 5:1 7:1 8:1 9:2 10:2 12:3 
-1 -0.7336035495638346 -1 -1 0.8686611545378603 1 1 1 1 1:1 2:1 3:1 4:2 5:2 6:1 7:2 8:2 9:3 10:2 11:1 12:2 
-1 -0.5166268599050586 -0.5166268599050586 -1 -0.595133001918326 0.4125647010208105 0.5166268599050586 0.6137416148232974 0.3340805848409302 1:3 2:1 5:1 7:1 9:2 10:1 11:1 12:2 
-0.7728575002706169 -1 -1 -0.914547685463306 -0.9510819197824494 1 1 0.9263612091971636 1 1:3 2:1 5:1 7:1 9:2 10:1 11:1 12:2 
-0 -0 -0 -0 -1 -0 0 0.3106936358401843 0.1759612360421283 1:1 2:1 3:1 4:2 5:1 6:1 7:2 8:2 9:2 10:2 11:1 12:2 
-0.7647202861481758 -0.5166268599050586 -0.8634791664445226 -0.9080626045329332 -1 -0.4125647010208105 0.6591856753902429 1 1 1:1 2:1 3:1 4:2 5:1 6:1 7:2 8:2 9:2 10:2 11:1 12:2 
-1 -1 -1 -0.9991614794047925 -1 -1 1 0.9555810430460813 1 1:1 2:1 3:1 4:2 5:1 6:1 7:2 8:2 9:2 10:2 11:1 12:2 
-0.7621623858489057 -0.2734168211247545 -0.1874271646813301 -0.6371968448547686 -0.8658973282352447 -0.5166268599050586 -0.6591856753902429 0.5790248455159596 0.5166268599050586 2:1 3:1 5:2 6:1 7:1 9:2 10:2 12:2 
-0.9216311032804421 -1 -1 -0.8632278764405127 -1 -1 -1 0.9327121060387449 1 2:1 3:1 5:2 6:1 7:1 9:2 10:2 12:2 
-0.8496990390713729 -0.7785439625395139 -0.685347792581113 -0.9566095407541295 -0.8513803365979088 -0.8091694355544777 -0.9023994890788259 -0.827188235941188 0.8634820794726238 2:2 4:1 7:3 8:1 9:1 11:1 12:2 13:1 
-0.1922847282403203 -0.4441375476105647 -0 -0.06008447945010768 -0.1784280893989344 -0 -0.3906071274277931 -0 0.01752888174460601 1:1 3:1 4:2 7:2 8:2 10:1 11:1 12:1 13:1 
-1 -0.9544397892494045 -0.7385216591552205 -0.9965749759660655 -1 -0.7309333884659831 -0.9732680623796465 -0.6845487156135165 0.9984554273288214 1:1 3:1 4:2 7:2 8:2 10:1 11:1 12:1 13:1 
-0.6759612360421283 -0 -0 -0 -0 -0 -0.1759612360421283 -0 -0 1:1 2:2 3:1 4:1 5:1 6:1 7:2 8:1 9:1 10:3 11:2 12:1 13:1 
-1 -0.5166268599050586 -0.3340805848409302 -1 -0.6851400882751012 -0.3340805848409302 -1 -0.5166268599050586 -0.8794663885460512 1:1 2:2 3:1 4:1 5:1 6:1 7:2 8:1 9:1 10:3 11:2 12:1 13:1 
-1 -1 -1 -0.9960531284002909 -1 -1 -1 -1 -1 1:1 2:2 3:1 4:1 5:1 6:1 7:2 8:1 9:1 10:3 11:2 12:1 13:1 
