svm_type c_svc
kernel_type rbf
gamma 0.047619
nr_class 32
total_sv 859
rho -0.487047 -0.149721 -0.0430752 0.0658325 -0.272185 0.00226369 -0.25885 0.0706757 0.322284 0.0388848 0.277454 0.180719 0.210073 0.352822 0.295708 -0.168633 -0.18267 0.298731 0.268139 0.248319 0.244838 0.177555 0.225441 0.169664 0.0931842 0.417911 0.223793 0.351443 0.242261 0.24876 0.0231924 0.185427 0.367718 0.382831 0.0995801 0.314033 0.104169 0.378621 0.549641 0.348033 0.510396 0.461139 0.474833 0.572183 0.533021 0.165281 0.144699 0.535267 0.518444 0.502084 0.499592 0.451927 0.483495 0.501032 0.398037 0.61676 0.484986 0.573513 0.500588 0.488891 0.375033 0.12479 0.204786 -0.0912593 0.137135 -0.0950995 0.2265 0.421047 0.164726 0.374551 0.309545 0.327936 0.448609 0.406745 -0.0161424 -0.0369878 0.406843 0.38835 0.370544 0.3636 0.30663 0.343337 0.279578 0.231639 0.509125 0.346215 0.457793 0.33339 0.335507 0.167021 0.104189 -0.24793 0.0145094 -0.235315 0.0850623 0.341473 0.039463 0.270267 0.20725 0.214429 0.348794 0.301477 -0.14098 -0.159454 0.302721 0.277106 0.260317 0.254079 0.186632 0.24233 0.198366 0.109147 0.413705 0.231126 0.355682 0.220315 0.228806 0.0636356 -0.290515 -0.101223 -0.376526 0.00319355 0.333008 -0.0280793 0.196162 0.14347 0.162229 0.292003 0.261848 -0.212174 -0.224093 0.281539 0.207648 0.18794 0.193417 0.113991 0.173929 0.0810357 0.0389757 0.358274 0.189603 0.286335 0.155277 0.168679 -0.0264953 0.222972 0.0015724 0.291608 0.491903 0.267112 0.44595 0.407792 0.441617 0.509424 0.477257 0.0745423 0.0535976 0.486572 0.458576 0.439986 0.448888 0.382423 0.421339 0.378881 0.403062 0.565231 0.426053 0.520698 0.435884 0.435371 0.310373 -0.308262 0.0769251 0.430061 0.0514115 0.288288 0.178979 0.202636 0.421061 0.343972 -0.148537 -0.166348 0.303278 0.264589 0.251246 0.265421 0.175266 0.225216 0.157302 0.097155 0.418468 0.252013 0.357674 0.201651 0.213206 0.0359355 0.304922 0.540637 0.261937 0.451733 0.387767 0.403373 0.546252 0.490006 0.0745583 0.0537391 0.493368 0.450683 0.43561 0.457103 0.377886 0.467924 0.40432 0.30926 0.557296 0.429153 0.511937 0.417032 0.409262 0.261255 0.242408 -0.0427163 0.211522 0.100566 0.122865 0.265375 0.227817 -0.224061 -0.236022 0.213719 0.216165 0.182845 0.174571 0.11283 0.138744 0.0507108 0.0247982 0.369492 0.151672 0.27311 0.117447 0.131275 -0.0390466 -0.264141 -0.0573982 -0.122194 -0.0972446 0.0285461 -0.0280585 -0.434606 -0.432036 -0.0157491 -0.0375474 -0.063932 -0.0677422 -0.122532 -0.159931 -0.182646 -0.193183 0.114073 -0.0847724 0.0483124 -0.121236 -0.0891138 -0.272684 0.215304 0.159427 0.159638 0.288976 0.250306 -0.197947 -0.217396 0.265804 0.229044 0.209537 0.213084 0.140384 0.167528 0.0908833 0.0743281 0.376522 0.201358 0.299332 0.140711 0.191305 -0.0445124 -0.0682702 -0.0458514 0.0875064 0.0443023 -0.387313 -0.387897 0.0206879 0.0206972 -0.00251549 -0.00850583 -0.0748334 -0.0378506 -0.118157 -0.14241 0.222494 -0.0357336 0.116014 -0.0631652 -0.039085 -0.216579 0.0245914 0.144778 0.107131 -0.328383 -0.331496 0.104373 0.0961467 0.0700055 0.0649441 -0.00343186 0.0360387 -0.0479844 -0.0772789 0.247555 0.0384654 0.166329 0.0048612 0.0282812 -0.170398 0.124292 0.0833692 -0.444364 -0.391748 0.0823738 0.0652079 0.0428122 0.0523001 -0.0241759 0.0633008 -0.0595355 -0.0882729 0.215762 0.0320599 0.144807 -0.0103679 -0.000634323 -0.177506 -0.0390006 -0.455653 -0.452509 -0.0666933 -0.061308 -0.0848504 -0.100951 -0.165589 -0.119161 -0.233656 -0.216387 0.0938716 -0.116204 0.0245453 -0.146082 -0.116044 -0.292713 -0.421932 -0.419488 -0.0225063 -0.0322439 -0.0545104 -0.0515721 -0.10877 -0.0793707 -0.149886 -0.179023 0.158242 -0.0732237 0.0637392 -0.0984535 -0.0755996 -0.251051 -0.118529 0.443928 0.404817 0.384425 0.38237 0.320562 0.402793 0.295014 0.309867 0.527634 0.370261 0.473912 0.338271 0.36152 0.19051 0.437568 0.404243 0.384966 0.382701 0.326293 0.39706 0.301234 0.312346 0.518661 0.369483 0.469859 0.339798 0.367185 0.204579 -0.0141927 -0.0381404 -0.0411411 -0.101822 -0.0680435 -0.150589 -0.178481 0.157523 -0.0044774 0.0851428 -0.116929 -0.0698684 -0.253915 -0.0343265 -0.0265356 -0.0945533 -0.0554475 -0.129815 -0.161435 0.178679 -0.0510772 0.0895696 -0.0870041 -0.059128 -0.233079 -0.0031965 -0.0731766 -0.0338088 -0.103824 -0.139392 0.261905 -0.0214174 0.129032 -0.0629692 -0.036569 -0.211966 -0.064155 -0.0277514 -0.102221 -0.136447 0.212122 -0.0325184 0.110686 -0.055008 -0.0318276 -0.211754 0.0351801 -0.0356099 -0.0734392 0.242676 0.0399825 0.169841 0.00896823 0.0313801 -0.140966 -0.0983255 -0.11621 0.198787 -0.00618269 0.135314 -0.0393657 -0.00358442 -0.205689 -0.0432169 0.280957 0.0778808 0.205779 0.0562833 0.0664852 -0.0874363 0.296445 0.116242 0.236809 0.0863338 0.111993 -0.073296 -0.214198 -0.0690197 -0.24429 -0.199833 -0.370017 0.136095 -0.0438204 -0.00510846 -0.197174 -0.161971 -0.137041 -0.307138 0.0481285 -0.179665 -0.180719
label 50 51 52 53 54 55 56 57 97 98 99 100 101 102 103 104 105 106 107 109 110 112 113 114 115 116 117 118 119 120 121 122
nr_sv 17 13 10 15 23 11 22 14 25 34 28 29 27 27 35 36 16 16 34 38 28 29 28 33 35 25 48 36 32 34 36 25
SV
0.5811738758460776 0 0 0 0 0 0 0 0 0 0 0 0 0 0 0 0 0 0 0 0 0 0 0 0 0 0 0 0 0 0 1:3 2:5 3:4 4:2 5:2 6:2 7:3 8:4 9:7 13:1 14:2 15:5 16:5 17:6 18:6 19:5 20:2 
0 0 0 0 0 0 0 0 0 0 0 0 0 0 0 0 0 0 0 0 0 0 0 0 0 0 0 0 0 0 0.1623774663666719 1:4 2:5 3:4 4:2 5:2 6:2 7:3 8:4 9:7 12:1 13:2 14:5 15:5 16:6 17:6 18:6 19:2 
0.524241798470197 0.6037242756144326 0.9092157396146421 0.855216518906139 0.7124649722143264 0.794581321183261 0.7761674869691089 0.7476392008089087 0.945425228567348 0.9344037442956771 0.9122896107731128 0.8680105807614148 0.8610636890400861 1 0.9271994914112661 0.5822831453412337 0.5736898608552828 0.9293970437052054 0.892796416932978 0.879597099756642 0.89109335975195 0.8291094786837759 0.8826630976027532 1 0.8021334009101296 1 0.8733039474693256 0.9537560871404765 1 0.9515930172202389 0.7842190997869505 1:3 2:6 3:4 4:2 5:2 6:3 7:2 8:3 9:6 14:1 15:4 16:5 17:6 18:4 19:7 20:4 
0.5066734745942435 0.1598302290869198 0.1214578190660971 0.3002572240144589 0.2970291877082414 0.1554338344245809 0.07548526686318249 0.1677444700837447 0.2509226780054712 0.6040460930102166 0.1818170077985932 0.1617132231582832 0.2220005882500503 0.2029185810295007 0.2144098991786934 0.112354601378451 0.1112671681995755 0.2290573667770965 0.1705001356309215 0.1741536990954805 0.1640033350612438 0.1629039813144181 0.1673248168911419 0.1524978446207986 0.1594615791557118 0.2097125358837731 0.1882979689605472 0.179732863590259 0.5975550442212741 0.2104137472426977 0.701776973287884 1:3 2:5 3:4 4:2 5:2 6:2 7:3 8:3 9:6 13:2 14:5 15:5 16:4 17:6 18:6 19:2 
0.4372351563334867 0.107287893879707 0.07052184818346732 0.1734153604775165 0.06761181760887125 0.1243569693567294 0.08233720438103115 0.154115602879442 0.2129889603898554 0.1624837884890283 0.1965673133468314 0.2559564270746816 0.1883463499379615 0.2306466800933704 0.2128369884190657 0.118989632541837 0.1189852344575146 0.2305377277686159 0.1892251574523311 0.1811595375230849 0.1930268368267148 0.1722120729763018 0.1822422856188099 0.1907721729162986 0.1578097900852659 0.2604643602806405 0.1866131003228047 0.2262801352239585 0.09069467519394449 0.1908656219993156 0.0727241673700043 1:3 2:5 3:4 4:2 5:2 6:3 7:1 8:3 9:7 12:1 13:2 14:4 15:6 16:4 17:7 18:5 19:1 
0.5227563352173773 0.8219234172205243 0.9340720679447233 1 0.7044695884217923 0.9652125993759054 0.7133384888548765 1 1 1 1 1 1 1 1 0.8982240842177074 0.8040451162124083 1 1 1 1 1 1 1 1 1 1 1 1 1 1 1:1 2:3 3:1 4:2 5:1 7:2 8:1 9:3 15:3 16:2 17:2 18:3 19:2 20:2 
0.5773017863422358 0.3173068371803313 0.6281868014878347 0.4052207135720244 0.3469006365113415 0.3804908500934691 0.2436249765639625 0.4496881422630973 0.5121745985740416 0.3817307503149798 0.4858985961018326 0.4898232726928381 0.4559733456744663 0.5269293815118544 0.4861487125459415 0.3135490254282606 0.3078179264974873 0.4830789394603183 0.4782782915764097 0.4704963115473679 0.463838716782934 0.4471097341410492 0.4683505514435706 0.6570305928104087 0.4132981381589404 0.5400942739487326 0.4571585642911176 0.5109064547285856 0.5499152193309137 0.4428089880735949 0.5625053424926819 1:4 2:5 3:4 4:2 5:2 6:2 7:3 8:4 9:7 10:1 13:1 14:2 15:5 16:5 17:6 18:6 19:7 20:2 
0.878957354314417 0.674265477544472 0.787520572913588 0.8744085929120715 0.615353392495759 0.7864000232869127 0.5722424172530536 0.8621951199045208 1 0.8682875433094288 1 0.9896418007317339 1 1 1 0.6684231097702243 0.6495848196046108 1 1 0.9958383840863523 0.9890501942315066 0.9399608823431866 0.9820289610671334 0.9960281340193377 0.9086139328534218 1 0.982626657368855 1 1 1 1 1:3 2:4 3:1 4:3 5:2 6:2 7:1 8:1 9:7 12:1 13:2 14:2 15:4 16:4 17:7 18:3 19:1 
0 0.199737715888523 0.4021662289925029 0.379826962959694 0.162076400891489 0.484826142315256 0.5483540063887405 0.2938836435735662 0.551140987489143 0.3069326261859905 0.309334698280833 0.3224068418914808 0.2945895565529808 0.3474896174017153 0.3573472377613582 0.1777918156364675 0.1765053761952144 0.510938586882797 0.283125718694188 0.2801996641693515 0.3372139602273573 0.2707357934869389 0.3200436396426199 0.700719120338043 0.2209642463522384 0.3214806101474516 0.3168060015644737 0.3035806299433122 0.8940333281212901 0.3141841902046444 0.09762593150991979 1:3 2:5 3:5 4:3 5:2 6:3 7:3 8:3 9:7 12:1 13:3 14:5 15:6 16:5 17:7 18:5 19:2 
0.6465176066913402 0.3373438858123904 0.4466391494806868 0.4961720931157174 0.4744231290612793 0.4724310749522874 0.4593185177928227 0.3997160298687847 0.551968208533248 0.6010280797277444 0.5035826752847389 0.6137191210398704 0.5159637210565634 0.55369786211116 0.5217916160372639 0.3370037724369012 0.3297579435226662 0.553208045799534 0.5108638708250155 0.5017239429322743 0.521492987238739 0.4711811707976228 0.4899172018870526 0.7102342747274757 0.4753045722163757 0.5680995718313642 0.4888934895581632 0.542688756937323 0.4755075823990552 0.5537399458953848 0.8419707763173366 1:3 2:6 3:4 4:2 5:2 6:3 7:2 8:3 9:6 13:1 14:4 15:5 16:6 17:4 18:7 19:4 
0.5048538219882953 0.8310197511902986 1 1 0.7087133232988154 1 0.8387637819736724 1 1 1 1 1 1 1 1 0.806120122719206 0.7918546810681022 1 1 1 1 1 1 1 1 1 1 1 1 1 1 1:3 2:6 3:4 4:5 5:4 6:5 7:4 8:6 9:8 12:3 13:6 14:6 15:4 16:5 17:6 18:4 19:7 20:4 
0 0 0.1446519274732951 0 0 0 0 0 0 0 0 0 0 0 0 0 0 0 0 0 0 0 0 0 0 0 0 0 0 0 0.4959410424979576 1:3 2:5 3:4 4:3 5:2 6:3 7:1 8:3 9:7 12:1 13:2 14:4 15:6 16:4 17:7 18:5 19:2 
0.5301023151315108 0.3211346143453387 0.724079205319386 0.3883046239090773 0.5728814903464967 0.3881203274642467 0.2091349395504816 0.4214516341520301 0.5509470204286653 0.3882058181605286 0.503080348270849 0.5152689334479837 0.4782335783661463 0.5285119766709591 0.4971866412582069 0.3253267268659803 0.3201747214392879 0.4885579788849922 0.4970711968937652 0.4875372585898243 0.4850441193918031 0.460840827179823 0.485332555507468 0.5831094256671643 0.4610521026669041 0.5517324412668438 0.472967003304572 0.5296201265006812 0.449196448436363 0.4776804899654262 1 1:5 2:6 3:4 4:2 5:2 6:2 7:3 8:4 9:7 12:3 13:2 14:5 15:5 16:6 17:6 18:6 19:2 
0 0.03850282279115285 0.1299342873927025 0.1035484736244255 0 0.1252154937030596 0.2901803359794324 0.1061288084598108 0.1070146155872155 0.04160283359659982 0.05574107562828538 0 0 0.06701007493204932 0.04720106089920154 0.01161336868618098 0.01161535524024177 0.1151573551897767 0.02575164331559977 0.02566065631536193 0.0245548055245921 0.02672606310521396 0.05772261204713183 0.3107438179401105 0 0.02969759577095992 0.05595755619992895 0.02646455790731903 0.7361846093057836 0.05074820594059939 0 1:3 2:5 3:5 4:3 5:2 6:3 7:3 8:3 9:7 13:1 14:3 15:5 16:6 17:5 18:7 19:5 20:2 
0 0 0 0 0 0 0 0 0 0 0 0 0 0 0 0 0 0 0 0 0 0 0 0 0 0 0 0 0 0 0.3740611758454333 1:4 2:5 3:4 4:2 5:2 6:2 7:3 8:4 9:7 13:1 14:2 15:5 16:5 17:6 18:6 19:6 20:2 
0.646458293808084 0.5819605644051943 0.9781883732649855 0.7300150981212846 0.5901656854159949 0.6913425029796509 0.5368547459395796 0.7342199994401087 0.9013205902065324 0.6981230427034768 0.8761439488888098 0.8082928718934045 0.8240984440758885 0.9233017089259156 0.8896130164373345 0.5606168281714471 0.5515854625242178 0.8988473666130163 0.8581990193291485 0.8453334720881925 0.8437341998274832 0.7970400024573354 0.8382200351084613 0.9603395312158525 0.7417059294543036 0.9628189709499682 0.8339976187802561 0.9149597550483586 1 0.8658154862027395 0.7554438481332394 1:4 2:6 3:5 4:3 5:3 6:3 7:3 8:3 9:7 12:5 13:1 14:2 15:5 16:6 17:5 18:7 19:5 20:1 
0.3739059789289761 0.1295066312036907 0 0.02212962328843246 0.04421085145043849 0 0 0.1161076231869285 0 0.06060927895555874 0.1686607545073396 0.09167384393835372 0.1546324345986439 0.151200184722786 0.1232178629012476 0.1368530820310198 0.1318092319169853 0.02722764172417647 0.1942207952623514 0.1905419322463432 0.149537323296071 0.1749672142108191 0.1483624249318741 0 0.1851871794632445 0.186277155463084 0.1429880385772674 0.1972988427767306 0 0.1639697345004919 0 1:3 2:5 3:5 4:2 5:2 6:3 7:2 8:3 9:7 12:1 13:3 14:4 15:6 16:5 17:7 18:5 19:1 
-1 0.7773131280156848 0.8566641404137446 0.958466174379898 0.6410401954893795 0.8216221404423952 0.6845707532381538 0.8868386864771385 0.9844356569030451 0.9039571973899229 0.9588743790040546 0.9610184287795862 0.9593221590351335 0.9988721287940034 0.976266953625557 0.7479277428739509 0.727161201649135 1 0.9642537146830072 0.9572156297771766 0.9504456536954963 0.9253775696010492 0.9506269090505514 1 0.8844441240911436 1 0.9747436325449985 0.9973443126599816 1 1 0.9753323233766986 1:1 2:4 3:3 4:2 5:3 6:3 7:2 8:2 9:5 12:1 13:1 14:1 15:4 16:5 17:7 18:5 19:1 
-0.7092616436195086 0.4659031587859864 0.6196285316163717 0.5341778624509453 0.4963889182104143 0.5259819735142632 0.4113402697628301 0.5586084267761603 0.6178364611551551 0.5448400230502257 0.6197792861571263 0.5813408214425125 0.5919755940508027 0.6433326764519776 0.6151978550153685 0.4683223506876036 0.4590329630456308 0.6141444471507841 0.6090105846099794 0.601571363423839 0.6022549071481809 0.5816221506032533 0.5956336467849319 0.6984919381391146 0.559986612369162 0.6529499950657448 0.5958948029248764 0.6326709568274527 0.6140876518916222 0.6050547384255112 0.5385576036694751 1:4 2:6 3:4 4:2 5:3 6:2 7:2 8:5 9:5 12:3 13:2 14:2 15:2 16:4 17:5 18:8 19:6 20:1 
-0.1932160709133421 0 0 0 0.02521152642456015 0 0 0 0 0 0 0 0 0 0 0 0 0 0 0 0 0 0 0 0 0 0 0 0 0 0.003049342541160184 1:3 2:6 3:3 4:2 5:3 6:2 7:2 8:3 9:5 12:1 13:1 14:3 15:3 16:4 17:7 18:7 19:3 
-0.310156686631919 0.2211804737307898 0.221518270645436 0.2364072443049553 0.1800550468193127 0.2661869821812231 0.3748995257152683 0.1551566460158651 0.1896901327788026 0.1952431728105659 0.1804863982776518 0.1606418125906014 0.1709213242738337 0.2321573046487944 0.175564911324372 0.129345723165002 0.1271017672510457 0.1820770534517822 0.1685294489138567 0.1678511693208786 0.1761352540843022 0.1654009948328141 0.1728548807425031 0.4366802144872935 0.1634713983967288 0.1882429109189288 0.1692742946924294 0.1764357290549891 0.3050495356133424 0.1833117589226943 0.2075597802779105 1:3 2:6 3:4 4:2 5:3 6:3 7:2 8:3 9:5 13:2 14:3 15:2 16:4 17:6 18:8 19:5 20:1 
-0.1054944554604009 0 0 0 0 0 0 0 0 0 0 0 0 0 0 0 0 0 0 0 0 0 0 0 0 0 0 0 0 0 0 1:3 2:5 3:4 4:2 5:3 6:3 7:2 8:3 9:5 12:2 13:2 14:2 15:4 16:6 17:8 18:5 19:1 
-0 0 0.1601639328123143 0 0 0 0 0 0 0 0 0 0 0 0 0 0 0 0 0 0 0 0 0 0 0 0 0 0 0 0 1:4 2:6 3:3 4:2 5:4 6:2 7:2 8:4 9:6 12:1 13:2 14:3 15:4 16:5 17:7 18:8 19:3 
-0.8828883993585319 0.2982988322770536 0.9794897658376209 0.5080909556137125 0.3976025935888057 0.4098764767042859 0.4017224214595265 0.3740432369934365 0.4687626083144291 0.3556532615807254 0.3942686933496852 0.4574562142015196 0.3927182299765569 0.3965359315459521 0.4014411923468876 0.2957773662094854 0.2904019885935402 0.4209070543141515 0.3869567623581274 0.3830295706729225 0.386031314395858 0.3726449454711339 0.3967236819249809 0.6472293177157136 0.3639569120345756 0.4130004047634034 0.3811623253952066 0.4005350852044368 0.4012646360766093 0.391294178535501 0.6671900736781223 1:4 2:6 3:3 4:2 5:4 6:2 7:2 8:4 9:6 12:1 13:2 14:3 15:4 16:5 17:7 18:8 19:3 
-1 0.7526181392251882 1 0.9819760813099228 0.8160516335854736 0.9063430581361449 0.9143498942456126 0.9165761656779852 1 0.8818755315629654 0.9781905171123748 0.96541752909073 0.9471828828935978 1 0.9900230516239765 0.7451557632542168 0.7325120584484008 0.9940712131033451 0.9722280165161413 0.9610710426706345 0.9633550463486273 0.9306528578239378 0.9816847809671413 1 0.8993445954954969 1 0.9559406256850875 1 1 0.9602007511609644 1 1:4 2:6 3:3 4:2 5:4 6:2 7:2 8:4 9:6 13:1 14:2 15:3 16:4 17:5 18:7 19:8 20:3 
-0.9987640740670454 0.3017819041939195 0.4330010369683338 0.3172902872302208 0.4472174069071798 0.3251833037764848 0.3372856555487138 0.3145383099546908 0.3693816429537412 0.3301686483232344 0.3541547018603093 0.3674296605558179 0.3602875145750028 0.3663623864342069 0.358035370147306 0.2688628616781683 0.2673726564791741 0.3699331539713702 0.3549731658273739 0.3487524035386201 0.3563607852828826 0.3372652552026963 0.3420856788577546 0.3937055754425789 0.417843663411507 0.3920999995168814 0.336499570582982 0.3681720167373339 0.5976423348320473 0.3981008343954053 0.3920544477601579 1:3 2:5 3:4 4:2 5:3 6:3 7:2 8:3 9:5 12:2 13:2 14:2 15:4 16:6 17:8 18:5 19:1 
-0.6544259450662435 0.3777949292808946 0.4128906986092274 0.4220687037204307 0.298068596617395 0.3776752434334012 0.2532268402569928 0.4778115801856975 0.4941480429091552 0.4496812040547025 0.516328996171209 0.4676383838683482 0.4762674235918686 0.5116851894128198 0.4974899547616707 0.3783849886086609 0.3722250922628825 0.4969953492666232 0.4969026137041733 0.4924993327700121 0.4836299671058607 0.4777435150832402 0.4670463118712637 0.4176094136150888 0.4531228030556353 0.5451988002458242 0.4816047727184886 0.5130691814796705 0.4944334380039809 0.479477939418867 0.4471091303700609 1:3 2:5 3:3 4:2 5:2 6:2 7:2 8:5 9:5 13:2 14:2 15:2 16:3 17:5 18:8 19:6 20:1 
-0 0 0 0 0 0 0 0 0 0 0 0 0 0 0 0 0 0 0 0 0 0 0 0 0 0 0 0 0.08117848779657764 0 0 1:3 2:5 3:4 4:2 5:3 6:3 7:2 8:3 9:5 13:2 14:2 15:2 16:4 17:6 18:8 19:5 20:1 
-0.5232968570987201 0.1570988553812835 0 0.1106777089760173 0.1922096486939811 0.1651824770519421 0.09587286494327356 0.2008447261437196 0.218025781232643 0.2148897719263158 0.2154604885165239 0.1859445701126748 0.211195119594687 0.236225141225343 0.2258264746662403 0.1782855410200843 0.1765090170557834 0.217700449111744 0.2316131913395698 0.2281020801157422 0.2262090224106015 0.2177143260843366 0.2258641943777146 0.3165087481103809 0.220767809464681 0.240314856950955 0.2244032294303369 0.2399484361265704 0.2459473623099902 0.2086454295389972 0.3027071822431778 1:4 2:6 3:4 4:1 5:3 6:3 7:2 8:4 9:6 12:1 13:2 14:3 15:3 16:5 17:7 18:8 19:3 20:1 
-0.35267366545053 0.3745556157935266 0.2773695774728713 0.4503255012800187 0.3019013613167525 0.4021351486473381 0.3108747833680219 0.4546103270752724 0.4750042087582229 0.4491494851312337 0.4865877983415256 0.4393967964938746 0.4655361670957202 0.506975069891815 0.4935687575732483 0.3740879550782698 0.3668142448307299 0.496576626717387 0.4867322263870631 0.4838904564694755 0.4774622802336279 0.470365052328726 0.470947538964514 0.3875821663817383 0.4345742257738816 0.520858673887038 0.4771364751946442 0.5043380268232289 0.5132087173411873 0.453342151122308 0.3575094909036151 1:3 2:5 3:3 4:2 5:3 6:2 7:2 8:5 9:5 12:2 13:2 14:2 15:4 16:5 17:8 18:6 19:1 
-0.86648709725189 -0.6777491024639274 0.8277268882068211 0.9203371319801525 0.6825356085488001 0.8454276632985095 0.71460349180508 0.8865810186131357 1 0.8730192273617474 1 0.9639595923304333 0.9753888721666669 1 1 0.716886521607107 0.7015453147587996 1 1 1 1 0.9530309649668696 0.9810716080923794 0.957220127946798 0.8994469083599049 1 1 1 1 0.9886545233638073 0.856406205693956 1:2 2:3 3:4 4:2 5:3 6:6 7:5 8:1 9:1 13:2 14:3 15:3 16:2 17:6 18:7 19:4 
-0.7641933285981639 -0.5598614844832779 0.7454240673893683 0.8112509120640574 0.6016777927848908 0.740184413173844 0.5825987543367652 0.841525418212548 0.9430592510365092 0.7751781074847668 0.9178325481908003 0.8804511213403512 0.8808871738711551 0.9644517907389627 0.9434227723166182 0.6552847800770442 0.6409990547004312 0.9266075529869061 0.9239469427995137 0.9201010577116597 0.9039569128199386 0.888033805077752 0.8854067798406163 0.8702967856569894 0.8196808577846412 1 0.9010589671852403 0.9713460922171485 0.8795288338588589 0.8899707121619507 0.7762772602525289 1:3 2:2 3:3 4:4 5:4 6:7 7:7 8:2 9:2 12:2 13:3 14:4 15:3 16:5 17:9 18:7 19:1 
-0.3575749021962901 -0.2388432518331101 0.3469807130555282 0.329449567239307 0.2781034998663042 0.3143546977034088 0.2608369687207197 0.3942349026250651 0.4419303733652524 0.3602700096858779 0.4352336799034945 0.4413381148209425 0.4106156488627679 0.4352288521732993 0.4483360438628221 0.308060814450664 0.3004502991333208 0.4533064468689987 0.4514403979784114 0.4419299527271431 0.4217293063092841 0.4166501766016196 0.3982478165622929 0.3996154346491124 0.3828208168637917 0.4959310049148504 0.4360626461297494 0.4657825163184297 0.4298079642681424 0.4189674628050282 0.3642186890087936 1:2 2:2 3:3 4:4 5:3 6:8 7:7 8:2 9:2 13:2 14:2 15:4 16:3 17:5 18:8 19:7 20:2 
-0.4809600813150828 -0.3379171459750419 0.4764405778860849 0.5457148602440282 0.3810568680007828 0.4970802605284763 0.4464182051314126 0.5235463542064257 0.6122655132495991 0.4837770630417272 0.582917253424326 0.5513819966267087 0.5622701702312556 0.63178798343135 0.6002594591344842 0.4068361255251574 0.3986736430317086 0.6034370351731377 0.5906400337024683 0.5855060742214453 0.581088948225548 0.5529839426200497 0.593926589071849 0.5472396099501778 0.5171613992373156 0.6440907095291046 0.575867163445512 0.6231177484397922 0.5966604483953074 0.5673542133340204 0.4861610289753656 1:3 2:4 3:4 4:5 5:5 6:8 7:7 8:2 9:2 13:2 14:3 15:4 16:5 17:8 18:8 19:7 20:3 
-0.429867194712072 -0.3025041971104644 0.4196152997854738 0.5122211818744958 0.3458599944523069 0.510172935004637 0.4216882008891972 0.4806809238740847 0.5438831463274162 0.4240024722652685 0.5028851910820717 0.4782176766105305 0.4919478159033812 0.5461090589559412 0.5258317666166538 0.3528573681375008 0.3459707071608371 0.5918116822069286 0.5089147836291575 0.4997741629756829 0.5076385525967928 0.4693432859836837 0.5142272524040773 0.4798133959393627 0.4469176675292687 0.5624111150067777 0.5026495275331184 0.5366020256682815 0.5838519419733416 0.4936267725416032 0.4239903101359052 1:3 2:4 3:4 4:4 5:4 6:8 7:7 8:2 9:2 12:2 13:3 14:4 15:5 16:6 17:8 18:7 19:3 
-1 -0.7223849360888551 1 1 0.8082542492962373 1 0.8090146362194931 1 1 1 1 1 1 1 1 0.8739448423142618 0.8548733683388943 1 1 1 1 1 1 1 1 1 1 1 1 1 1 1:3 2:4 3:4 4:6 5:6 6:9 7:8 8:3 9:3 12:6 13:4 14:3 15:4 16:5 17:6 18:8 19:7 20:3 
-0.001313331751497487 -0.01018620232812846 0.008156999284249048 0.08356479405928223 0.005572024770856786 0.05700497967086154 0.05798437944928154 0 0.02418677339261583 0.005115114304099676 0.02368604140964641 0 0.01060281908710395 0.04638270054098409 0.01922475295468746 0.001380308985190058 0.002258162352707774 0.02030241283025133 0.004198917019760348 0.004569092686349844 0.01564576477074942 0.008297601153166497 0.02688468085368766 0.01119885752419757 0.005098399563231925 0.01088593330469234 0.005393301689969721 0.01357414172294732 0 0.00500080654698991 0.003197977211312198 1:3 2:3 3:3 4:4 5:4 6:8 7:7 8:2 9:2 13:2 14:3 15:4 16:3 17:5 18:9 19:7 20:3 
-0.6578607449290448 -0.4702460414330508 0.6363323405783958 0.683288587515574 0.5173621856425185 0.6793441129159096 0.5344758273198409 0.9888405423115958 0.8108447400271592 0.666651397204556 0.800872338184205 0.7462608183794672 0.7560760950872152 0.8684155136512487 0.8023736573129372 0.5609315726954692 0.5487396044674265 0.8019199688464652 0.7910461084780839 0.7848577411017675 0.7776143465343357 0.7527136642638507 0.7635696581859777 0.7411929121387267 0.7011349717569753 0.8674308453734739 0.7683672516010317 0.8381125740256423 0.7601095334146666 0.7578118561154252 0.6640613154934801 1:2 2:3 3:4 4:3 5:3 6:7 7:8 8:4 9:2 13:1 14:3 15:3 16:3 17:5 18:8 19:8 20:5 
-0.3363190687872524 -0.241441828838157 0.3297583237651718 0.3658549314118508 0.2621319994234732 0.3434825012736681 0.2359998971081975 0.4971061653609558 0.4255315959531454 0.3405703534405141 0.4092854258744129 0.3822920529962575 0.3902202068328118 0.4440181251766473 0.4178960523828991 0.2896105202609856 0.2831669042619119 0.4372275336769266 0.411543042620056 0.4038714209451729 0.4000203312339512 0.3880195714163616 0.3942940863554723 0.3783877984220425 0.3627616074448856 0.4586558980669311 0.3942572524966376 0.4387175359928736 0.4075525955406265 0.3928897599173892 0.3418107791997533 1:2 2:3 3:4 4:3 5:5 6:7 7:8 8:3 9:2 12:1 13:2 14:3 15:4 16:5 17:8 18:8 19:6 
-0.2289683666216823 -0.165410846130314 0.2281469647199144 0.2632785783765715 0.1802738547623317 0.2052009698957827 0.1739297639591565 0.1663051837419206 0.2762609070534141 0.2258526358816301 0.2558141224492636 0.2500687135149621 0.2594418170074252 0.2651179614491249 0.2739013919489069 0.1916848844590251 0.1878871967179631 0.2732297364291746 0.2694172639088468 0.2639999307159746 0.2648018489720113 0.2485306193129002 0.2728994269575244 0.247424079528123 0.2408882412500353 0.2851556347082422 0.2627006245598196 0.2778373065424837 0.2897903049447043 0.2638825978897615 0.2294328455141828 1:2 2:3 3:4 4:3 5:4 6:7 7:8 8:3 9:2 13:1 14:2 15:3 16:4 17:5 18:8 19:8 20:5 
-1 -0.8731728772270027 -0.5829817742645483 1 0.7389824608092483 0.6802013421988949 0.7003849398160356 0.7154540840735455 0.8904783861530062 0.774255862999903 0.8623068311683288 1 0.8594896376320496 0.9028194679599988 0.9124799406669482 0.5583321484419486 0.545981936919899 0.9152344855072126 0.8406251390470018 0.8288213592544407 0.8465540113532611 0.7725878045127197 0.7960087050444953 1 0.7810634533452353 0.935382993126785 0.8446516282060647 0.8798458114640144 1 1 0.7900711257045042 1:4 2:5 3:2 4:4 5:5 6:2 7:2 8:2 9:5 13:1 14:1 15:4 16:5 17:5 18:5 19:6 20:3 21:1 
-0.04665365473647873 -0.1870006461158771 -0.1615192122313679 0.2199794358854121 0.113705651706314 0.1314330067758033 0.07091099405012613 0.2020159461147668 0.2183291405778025 0.2022003877334699 0.2452350928268639 0.2102639451759448 0.2428785266695897 0.2308703509815798 0.2709349216141297 0.1716638519702084 0.1673381533190985 0.2614364144749158 0.2550626630392387 0.2501456555019685 0.227056355382783 0.2353424000499788 0.1806691848192753 0.068856961413265 0.2244730244438546 0.2785995428953061 0.2368343900529834 0.2694137430327586 0.1896604665040708 0.2644358569998977 0.2641465673810819 1:6 2:6 3:2 4:5 5:5 6:2 7:2 8:4 9:6 13:2 14:4 15:6 16:6 17:6 18:8 19:4 20:2 
-0.9079422438498136 -0.4693290270373113 -0.6276273406938898 0.7804408740209779 0.7467626045466297 0.7295206837773238 0.5737733939084033 0.7695732193360064 0.9948264412853219 0.7292855481151392 0.9304385419135828 0.8327906422224862 0.8524135800399428 0.9869706513110508 0.9469814767466306 0.6055681144904791 0.5924866835351473 0.9535781047500015 0.9120725345998602 0.902225518305762 0.8928179506330461 0.8403162489759721 0.8982597890681815 1 0.7833302976706831 1 0.8753004900021292 0.981678434867006 1 0.9015888206610528 0.7465537825184145 1:6 2:7 3:4 4:5 5:6 6:3 7:3 8:3 9:6 12:7 13:3 14:2 15:4 16:6 17:6 18:6 19:6 20:3 
-0.7249361195476816 -0.4377328011250005 -0.6249122163988656 0.8868913719652699 0.4957503624510908 0.7636651277307758 0.593185915419805 0.8023101693317217 0.9848391783031252 0.7371738867938809 0.9347104696907301 0.8578233007904885 0.8715668269826926 0.9956264554732965 0.94644098671039 0.6198236397177105 0.6067195508156614 0.9441998807463432 0.9239284428024483 0.9138163178510412 0.9087819301146582 0.8613959510362323 1 1 0.7960940493891346 1 0.8931051381179856 0.9878619014354192 0.8589196538636014 0.8820799828651097 0.6781171066782545 1:6 2:6 3:2 4:5 5:6 6:2 7:2 8:5 9:6 14:2 15:4 16:6 17:6 18:6 19:8 20:6 21:2 
-0.152621321308017 -0.08732279941410528 -0 0 0.2377569938278414 0 0 0 0 0 0 0.322408558567136 0 0 0 0 0 0 0 0 0 0 0 0.004508383271999254 0 0 0 0 0 0 0.4933721388167776 1:6 2:6 3:3 4:4 5:5 6:2 7:2 8:3 9:6 12:1 13:2 14:5 15:6 16:6 17:6 18:6 19:4 20:1 
-0.4942687054207955 -0.1491149495740018 -0.2544985338357814 0.2108141220764289 0.5346492930121096 0.2219785068945514 0.1135741902308331 0.2925092068379617 0.3422364041319204 0.3404407730202771 0.3861101329989132 0.4586632376228548 0.4433799947169993 0.4002618238178751 0.3800178487883039 0.2580831260061889 0.2527228256201057 0.3606566755326974 0.380783675042517 0.3756595845473527 0.4016091228054146 0.3534698685124775 0.3456358194845377 0.4921818192715295 0.4024890515572017 0.4264970147417114 0.3706632252708126 0.4048026244098906 0.3619759484275968 0.3941644280908598 1 1:7 2:7 3:3 4:4 5:5 6:2 7:2 8:3 9:6 12:3 13:2 14:5 15:6 16:6 17:6 18:6 19:4 20:1 
-0.3955243120723391 -0.05912656274579801 -0.465088394348359 0.8342373926177677 0.2980028085753463 0.5832826775283343 0.2682516754007529 0.6649193535456737 0.6241952263648729 0.5673207420481846 0.6775735551532664 0.5443962730878881 0.6243063477858714 0.7522744164281671 0.717187735857297 0.4399060400964025 0.4301037429960594 0.7409108997767485 0.6587917599673303 0.6514065907977167 0.6505327937042213 0.6169515775052264 0.747547145973928 0.9533430759146939 0.5561276539174768 0.7320564648351302 0.6523477857309096 0.6975845637336638 0.6537551074594161 0.614950107089892 0.6124460620214635 1:5 2:6 3:2 4:4 5:5 6:3 7:3 8:5 9:6 12:2 13:2 14:5 15:6 16:5 17:8 18:6 19:5 
-0 -0 -0 0 0 0 0 0 0 0 0 0 0 0 0 0 0 0 0 0 0 0 0 0.09683656358898446 0 0 0 0 0 0 0 1:5 2:6 3:2 4:4 5:5 6:3 7:3 8:4 9:6 13:2 14:2 15:5 16:6 17:5 18:8 19:6 20:4 
-0.8275111267261638 -0.5136677561029581 -0.7158994869093918 0.9055058229040158 0.6350419793246792 0.8334195095805371 0.6218625601457548 0.8890418436066334 1 0.8519845318109188 1 0.9957154502843274 0.9989848855810167 1 1 0.7037873240503424 0.688868387550023 1 1 1 1 0.9768443303199282 1 1 0.9097445316058262 1 1 1 1 1 0.8753779290173316 1:8 2:8 3:4 4:6 5:7 6:3 7:3 8:6 9:6 12:8 13:3 14:2 15:4 16:6 17:6 18:6 19:8 20:6 21:2 
-1 -0.5893288492684454 -0.8254163116817372 1 0.7019065320924656 1 0.7340246100232635 1 1 0.9784470997786752 1 1 1 1 1 0.8085460827788699 0.7905933354433945 1 1 1 1 1 1 1 1 1 1 1 1 1 1 1:6 2:6 3:2 4:7 5:7 6:4 7:5 8:7 9:8 12:3 13:6 14:6 15:4 16:6 17:6 18:6 19:7 20:5 21:3 
-0.5256638020319532 -0.8747155827997292 -0.007364465103546554 0.1900592264328609 0 0.3186220344304168 0.4856428905605611 0 0.4236983064503125 0 0 0 0 0 0 0 0 0 0 0 0 0 0.04450105741452498 0.2747695136031331 0 0 0 0 0.1326394198316857 0 0 1:5 2:6 3:3 4:4 5:5 6:3 7:3 8:4 9:6 12:2 13:2 14:5 15:6 16:5 17:8 18:7 19:4 
-0.6187134363456348 -0.6028097439211557 -0.3080152356330895 0.6779299243799768 0.2058930239684437 0.5324020512285951 0.5942565699003228 0.4590640712455779 0.5767561227621875 0.3432262095569867 0.4484350287292752 0.4003390116954806 0.3868873334431173 0.5370529776692686 0.4501330322688848 0.2780586288829334 0.2718379422434297 0.4908972949769614 0.4157892746966064 0.4125696694738832 0.4199088473848421 0.3926928898244256 0.6199114558256437 1 0.350753864617473 0.4692941059406276 0.4369669613561299 0.4444157673022043 0.5662570993227596 0.3620962455239627 0.5193494396780977 1:5 2:6 3:2 4:4 5:5 6:3 7:3 8:4 9:6 13:2 14:2 15:5 16:6 17:5 18:8 19:6 20:4 
-0.5437298768511716 -0.1174043590445348 -0.4452592035704303 0.6052721366806606 0.331292583393583 0.5833253978449113 0.6179385076279355 0.5483963328193358 0.8898512768366624 0.5467248223223996 0.6427677171758305 0.7177355479098938 0.6470240175235139 0.6964628698162092 0.6689750045892412 0.4297296130128369 0.4209872984492615 0.7776489264514407 0.6403460846492659 0.6336858286001494 0.7033421422009232 0.5968239192177642 0.7366589217897009 0.7046868982925345 0.550148077283426 0.7065348200283202 0.653999583937053 0.680266583149681 0.7339321475816493 0.6644817387484231 0.4721204881772883 1:6 2:6 3:4 4:4 5:5 6:3 7:2 8:3 9:6 10:1 11:1 12:1 13:2 14:5 15:8 16:6 17:7 18:7 19:4 20:1 
-0.005048922844058754 -0 -0 0 0.4096962392000463 0 0 0 0 0 0 0 0 0 0 0 0 0 0 0 0 0 0 0.02266136249754238 0 0 0 0 0 0 0.2280244889352879 1:6 2:6 3:3 4:4 5:5 6:2 7:2 8:3 9:6 13:1 14:2 15:5 16:6 17:6 18:6 19:6 20:4 21:1 
-0.03402049939980346 -0 -0 0 0.1052031987446207 0 0 0 0 0 0 0 0 0 0 0 0 0.02566532548183519 0 0 0 0 0 0 0 0 0 0 0.06089423067689873 0 0 1:5 2:6 3:2 4:4 5:5 6:3 7:3 8:4 9:6 12:2 13:2 14:5 15:6 16:5 17:8 18:6 19:4 
-0 -0 -0 -0.0005701438927264598 0 1 0 0 0.715037540090702 0 0 0 0 0 0 0 0 0 0 0 0 0 0.08569460564502981 0 0 0 0 0 0 0 0 1:3 2:5 3:4 4:5 5:6 6:4 7:4 8:6 9:5 13:3 14:7 15:6 16:5 17:6 18:8 19:7 
-0 -0 -0 -0.0006278929532643349 0 0 0 0 0 0 0 0 0 0 0 0 0 0 0 0 0 0 0 0 0 0 0 0 0 0 0 1:3 2:5 3:3 4:6 5:6 6:4 7:4 8:4 9:4 14:5 15:7 16:5 17:5 18:6 19:7 20:4 
-0.256022533237629 -0.09632423913834522 -0.09659038128903985 -0.05260190477938809 0.1471872046406722 0 0.2119635883192356 0.06448725793578412 0.1815191545605575 0.2490612261299284 0.05714430252908998 0.2472885860716297 0.3139618569201094 0.138488792058876 0 0.1141754284817656 0.1155905216354791 0.7576011212132839 0.140569496326311 0.06102712149503073 0.2030940084800714 0.08213353679417795 0 0.2774929613262631 0.1629306744349889 0.1212774479683158 0.2012800498243779 0.1702240047975043 0.2716044162487617 0.2193762009966229 0.1482216268811982 1:2 2:5 3:3 4:5 5:6 6:4 7:3 8:4 9:4 13:5 14:7 15:5 16:5 17:6 18:6 19:2 
-0 -0 -0.1429212166060976 -0 0 0.1892677253527015 0 0.2354368055609978 0.2082677487658812 0 0.2264826805810544 0 0 0.1620182673173474 0.8508024282327583 0.07233739956181701 0.06986078480088681 0 0.1673466500679629 0.2677093215524575 0 0.2490318781779915 0 0 0.08892612593437405 0.2456010675865975 0.03954483558408234 0.1342845615881116 0 0.04855720113195323 0 1:2 2:4 3:3 4:5 5:6 6:4 7:3 8:4 9:4 13:5 14:7 15:4 16:4 17:6 18:7 19:2 
-0.2092862134113001 -0.1333054845108059 -0.1618208567902329 -0.2157214515069822 0.1820662764889669 0 0.3521314473952601 0.1545398456691617 0.3022789176556111 0.1965629664980026 0.1231077344668498 0.2609875853582289 0.2296398493106572 0.05876926338947156 0.01411782860392785 0.1339894154332924 0.1427248140414988 0.825956333636762 0.2460801678085821 0.2465725837342768 0.1855398465029224 0.2056051000915139 0.3198711580964936 0.4969523247143488 0.1885287218310538 0.2103168837416899 0.5084950179070585 0.2205109462598044 0.55480583223348 0.3319219481201574 0.2161810861052423 1:2 2:5 3:3 4:5 5:6 6:4 7:4 8:4 9:4 14:5 15:7 16:5 17:5 18:6 19:5 20:4 
-0.4256956054350555 -0.3441098057622504 -0.3503637779436206 -0.4438178325732907 0.2352478382500171 0.3835026981685388 0.6089877497408255 0.7153544015313521 0.4220305444436707 0.3199193831336737 0.4804888348310061 0.3930645748374363 0.3646159038443808 0.3980002824925261 0.5547457222369891 0.2552249284536623 0.2531803055098892 0.5101915834302821 0.4353442879699171 0.4094914305981876 0.361412948848197 0.4510770378194904 0 0.4676102668766355 0.3376093942555928 0.4805000835193193 0.3406353202327213 0.4139223910137282 0.485329956241383 0.3852353157925553 0.3335019876399091 1:2 2:4 3:3 4:5 5:6 6:4 7:4 8:4 9:5 13:2 14:6 15:5 16:5 17:5 18:8 19:6 
-0.7744111621066252 -0.6116531998142648 -0.5853831415440056 -0.6916849248807556 0.5445752140190807 0.5981782055528372 0.4746271432482358 0.7421078894015027 1 0.9549911088041214 0.851207905485482 1 1 0.9519061618621095 0.9897128706224183 0.5656221268764547 0.5573214613947993 1 0.8602574660292881 0.9041165328392059 0.9125727040174637 0.7997864803402116 0.8652320132767438 0.9857275043671884 0.7461046450026468 1 1 0.9075981936695192 1 0.9235124553938978 0.7870867203056451 1:2 2:3 3:2 4:3 5:6 6:4 7:2 8:4 9:4 13:4 14:6 15:4 16:4 17:5 18:6 19:1 
-0 -0.001760490724944017 -0 -0 0 0.4522669368000072 0 0 0.3940122682944979 0 0 0 0 0 0 0 0 0.01688876793380789 0 0 0 0 0.2807495616284895 0 0 0 0 0 0 0 0 1:4 2:5 3:2 4:5 5:6 6:6 7:6 8:5 9:5 12:3 13:6 14:7 15:5 16:5 17:8 18:6 19:4 
-0.5642825631012689 -0.3509614503278439 -0.4468067438380076 -0.5426776254028781 0.4270540635366236 0 0.09627016395657625 0.8442665023219674 0 0.5832191886482946 0.7028201190285979 0.6652984715177093 0.6977479811925715 0.7258519880307878 0.7434982639327166 0.4660746133594877 0.4585491769153328 0.8390918543121185 0.7009185692790829 0.6958941008187767 0.7056222357585071 0.6397210422801659 0.4519722513578071 0.6058578868314491 0.6145993940877748 0.797912784508067 0.7387909586035838 0.7828739532712462 0.7132660120502125 0.6892457396086034 0.577297436945968 1:3 2:5 3:4 4:5 5:6 6:4 7:4 8:7 9:4 13:3 14:7 15:6 16:6 17:6 18:7 19:7 
-0.8247644015410466 -0.5417788552484842 -0.6975960830383298 -0.7827797132205975 0.6250493311414723 1 0.6356698563316713 0.8801417223376514 1 0.8531454772743214 1 1 1 1 1 0.6986437456161404 0.6881743920291113 1 1 1 1 0.9877765636819272 1 0.9344045751354659 0.9214547936271774 1 1 1 1 1 0.88690287889619 1:6 2:7 3:5 4:7 5:7 6:5 7:5 8:4 9:4 12:5 13:8 14:9 15:6 16:5 17:6 18:7 19:4 
-0 -0 -0 -0 0 1 0 0.142203240503037 0.4669557825848941 0 0 0 0 0.1139625411313594 0 0 0 0 0 0 0 0 0.9318252214601598 0.04570193212841031 0 0.04272876989959279 0 0.06404618347109629 0 0 0 1:3 2:5 3:4 4:5 5:6 6:4 7:4 8:6 9:5 14:3 15:7 16:6 17:5 18:6 19:8 20:7 
-0.1641404788176996 -0.1288778580291614 -0.09057073291599378 -0.2680202767484327 0.1229244168636693 1 0.4035831008734762 0.08269661776940848 0.8093299736381001 0.2698946103178489 0.1861423650276836 0.1751380416774003 0.2120001380948992 0.3883381253833073 0.3882059393289712 0.06712849042604888 0.06452307357927824 0.543910258509823 0.1067084843148972 0.1042366286953583 0.3418570319135538 0.0888208819904449 1 0.4273014211813453 0.08497067002176603 0.155516186903575 0.2182808846725885 0.123438938818466 0.2587797264042466 0.09798449569528202 0.1957214553112611 1:3 2:6 3:3 4:5 5:6 6:4 7:4 8:4 9:4 12:2 13:5 14:7 15:5 16:4 17:6 18:7 19:3 
-0 -0 -0 -0 0 0.3225347078795536 0 0 0 0 0 0 0 0 0 0 0 0 0 0 0 0 0 0 0 0 0 0 0 0 0 1:3 2:5 3:3 4:6 5:6 6:4 7:4 8:4 9:4 13:5 14:7 15:5 16:5 17:6 18:7 19:4 
-0 -0 -0 -0 0 0.2938005651263681 0 0 0.468043362155672 0 0 0 0 0.08364583215318716 0 0 0 0.07396044774829225 0 0 0 0 0.5314650485442712 0 0 0 0 0 0 0 0 1:4 2:5 3:2 4:5 5:6 6:6 7:6 8:5 9:5 13:3 14:6 15:7 16:5 17:5 18:8 19:6 20:4 
-0.5803666760705098 -0.3614441832439507 -0.562830403781044 -0.6281476911630699 0.4300305101160705 1 0.5758898018026585 0.8477459723884316 0.9912247228536857 0.5845378227420498 0.8178366542534163 0.6941779859201019 0.7153820110217521 1 0.8840375907424255 0.4773148930818396 0.4693655305630482 0.9953048739817181 0.7278133747908301 0.7659901551636631 0.766510516732544 0.6863204916578259 0.9972574190617458 0.8245115876676138 0.6280801219861987 0.8404423657807923 0.7939500899170946 0.8102420980851045 0.7018643094165095 0.688438229337103 0.5954454863427245 1:4 2:5 3:2 4:5 5:6 6:6 7:6 8:5 9:5 13:3 14:6 15:7 16:5 17:5 18:8 19:6 20:4 
-0.6611358554116463 -0.3960171260470797 -0.6148974086841655 -0.6638548573673104 0.459795654156554 0.9474212595660642 0.4822932735124935 0.7831216769723363 0.9190794344074483 0.6129171050923983 0.8210502739218118 0.7711381974889279 0.7542181079769171 0.9566068831421465 0.9289414143038264 0.5219631302941224 0.5144114815740394 1 0.8275658802041148 0.8133196939289256 0.8046654759505903 0.7585192025532408 0.9933817189651726 0.814645831590702 0.6888584233206888 0.9311125515892033 0.8250279771316616 0.8698598771390265 0.9229330522638002 0.7787299513314953 0.6540230810745216 1:4 2:5 3:2 4:5 5:6 6:6 7:6 8:5 9:5 12:3 13:6 14:7 15:5 16:5 17:8 18:6 19:4 
-0 -0 -0 -0.1107643151495928 0 1 0.6360611260842012 0 0.9756248858777916 0 0 0 0 0.2563629692084913 0 0 0 0 0 0 0 0 1 0.1951882134545145 0 0 0 0 0 0 0 1:3 2:5 3:4 4:5 5:6 6:4 7:4 8:6 9:5 13:3 14:7 15:6 16:5 17:6 18:8 19:7 
-0.9041891711455283 -0.6098609758664646 -0.6190494129864786 -0.8824037288024931 0.6685596503852077 0.6683311069155387 0.4752772262496507 0.7794543651428619 1 1 0.9204487141252994 1 1 0.976603645515942 1 0.6774824652038646 0.6163841972422208 1 0.9822438257299858 0.9770291161895206 0.9737575103363012 0.8483989771569027 0.9665220020981616 0.9271598292385999 0.8975198875174388 1 1 0.9806835722918781 1 1 0.8602518585582191 1:2 2:4 3:1 4:3 5:5 6:3 7:3 8:2 9:3 14:2 15:6 16:5 17:3 18:4 19:4 20:2 
-0 -0.01560416376555719 -0.026763766128601 -0.1509354314610773 0.03784684621572134 0.2270970294295138 0.6657229521123761 0.03088096368040923 0.4728580237667311 0 0.03169488630270394 0.006389149289657904 0.03437875886628248 0 0.2113898212706257 0.04536337149903576 0.03632178391975821 0 0.05876553604440798 0.04915457076496146 0.003889710823249622 0.04041370129679991 0.5337084625989618 0 0.05252036860462597 0 0 0 0 0 0.03679769570052933 1:3 2:5 3:3 4:6 5:6 6:4 7:4 8:4 9:4 14:5 15:7 16:5 17:5 18:6 19:7 20:4 
-0.5632052438607259 -0.4028516169196041 -0.4969157831476753 -0.8317735418502133 0.4129448254606431 0.7517143531554913 0.8363712289202172 0.6077586338140033 0.7848352489550074 0.4954243596254672 0.7478480494420862 0.6732897310347854 0.6307107942729185 0.8660021921477086 0.9107282259058377 0.4024087653125555 0.4092859079882971 0.7206079782460757 0.6770473409047399 0.6602427041039891 0.6659537056850251 0.6002574166194669 0.7071146070883177 0.7611406970196072 0.533132661979368 0.8120717728926876 0.7166588108563894 0.7039776928423971 0.6972956244842592 0.6583698815031979 0.51921023696632 1:3 2:4 3:2 4:4 5:6 6:4 7:4 8:2 9:4 14:2 15:6 16:4 17:4 18:5 19:7 20:5 
-0.03417268356995868 -0 -0 -0 0 0.4421050117490368 0 0.003966297765270485 0.2782865464351308 0.1215711179958084 0.1989022954287108 0.05518398238003688 0.06877822245074827 0.4628621801476168 0.739788323479342 0 0 0.2997090282181862 0 0.03102727806614391 0.2373154807832985 0.008203710314441396 0 0 0 0.1250449840351776 0.2501093641097829 0.1178602793349908 0 0.04996594277342489 0 1:2 2:5 3:3 4:5 5:6 6:4 7:4 8:4 9:4 14:5 15:7 16:5 17:5 18:5 19:6 20:4 
-0.01826579296744824 -0.02998347662743131 -0.02026541415947428 -0.2107035094516009 0.08320247573450877 0 0.8723555281281196 0 0.2647356692967473 0 0.0994052507376537 0.09166247652713412 0.07820427381285695 0 0.1838057597787475 0.0703572145749102 0.06821404120267992 0 0.09906693636848479 0.08331636028559827 0.1988268911233879 0.07460508910187975 0.1704189368895032 0 0.09188605320876055 0.07467596102537388 0.2387860946210135 0.1133756917255046 0.02929635456407934 0.1212766922939948 0.1209804593217922 1:3 2:5 3:3 4:6 5:6 6:4 7:3 8:4 9:4 13:5 14:7 15:5 16:5 17:6 18:7 19:3 
-0.7485769042243993 -0.4949475932399341 -0.6021854219125532 -0.834045465759697 0.5361477474526969 0.9919550533985967 0.699379627601901 0.9522834336002359 0.9985574436379129 0.7303339583729003 0.9582139943733481 0.8537545984222151 0.8631291781194934 0.9987392812243041 0.9355166311268142 0.5975012642522496 0.5869793308356688 0.957754462698892 0.9083037076565026 0.9060748989654259 0.8793532270665209 0.8567308944184702 0.9983926415011546 0.9905656498698701 0.7871085245412358 0.9858117616208901 0.945893301738938 0.9881206163417768 0.8847479326338408 0.869458900004678 0.7426817251093021 1:3 2:5 3:4 4:5 5:6 6:4 7:4 8:6 9:5 14:3 15:7 16:6 17:5 18:6 19:8 20:7 
-0.3138637154532433 -0.2076488320512044 -0.2668119312940224 -0.4619419988308434 -0.3157806652622095 0.3092083299145728 0.2343908535290523 0.3155358842961566 0.3461118800509959 0.3528748880529794 0.3572550667200283 0.3326755208972314 0.3575677950943318 0.3634053843413876 0.3468344064941085 0.2705605043902548 0.2649043712321169 0.3391497306291749 0.3442279934673541 0.3422976416614995 0.3685677471654773 0.3370924556402842 0.336552230301425 0.3688560444554368 0.6392509449539503 0.3657560969488194 0.3406143806990765 0.3550694493656954 0.2775154668296811 0.4511183787657083 0.3792843570067149 1:7 2:7 3:3 4:3 5:3 6:2 7:2 8:3 9:3 14:1 15:4 16:5 17:6 18:5 19:5 20:4 21:3 
-1 -0.7321250168793842 -0.8959954793268371 -1 -1 0.9992314456360637 0.810501188439002 1 1 1 1 1 1 1 1 0.8799577350582133 0.8630878586187188 1 1 1 1 1 1 1 1 1 1 1 1 1 1 1:9 2:7 3:4 4:3 5:4 6:4 7:4 8:3 9:3 12:7 13:1 14:1 15:5 16:6 17:6 18:6 19:5 20:3 21:1 
-0.4693919613783459 -0.3920848005777319 -0.2748752916664757 -0.5274254183344752 -0.3724247829344832 0.3015065637797242 0.3112690814652571 0.3168366127071375 0.3711992370920043 0.2959118920978901 0.3425029678456633 0.4239030202585814 0.3493671117995828 0.3685539076308784 0.361541520203484 0.2515767097603172 0.2460355619174218 0.391671831346912 0.3527343293670518 0.3473008562408058 0.3377140085366108 0.3293114100162304 0.3814524343860027 0.3597671523649704 0.6188214421406929 0.3827348892434617 0.3665848044656511 0.3691670692144057 0.5418613507440609 0.3925148653720868 0.4105705816358694 1:7 2:6 3:3 4:2 5:3 6:3 7:3 8:3 9:3 14:1 15:5 16:6 17:6 18:6 19:5 20:3 21:1 
-0 -0 -0.01545995558418025 -0.3370693428760103 -0.03210573338387886 0.04298470076377046 0.02439117507790906 0.03982436146294852 0.03850779592634537 0.03933044425965374 0.05951308789331825 0.1760292204227032 0.1757741000433849 0.04869911726105701 0.05451549777657563 0.04235983118885413 0.04144149034946161 0 0.05825031443190304 0.05741089945047312 0.09689542453614622 0.05339746948600654 0.05992065784499284 0.05923194453477091 0.2024477983804116 0.0623533887684478 0.04391966976149804 0.0613314391567928 0 0.2127898578998348 0.2844663358869626 1:7 2:7 3:3 4:3 5:3 6:2 7:2 8:3 9:3 13:1 14:4 15:5 16:6 17:5 18:5 19:4 20:3 
-0.58040361748265 -0.381988431444779 -0.4953451693236214 -0.6274805517046231 -0.6467947974421716 0.5521243640506391 0.4374736174295813 0.580467891937318 0.7187498942405511 0.5636233331477406 0.6421659140236486 0.9095866543821425 0.9301105785102753 0.6729935262250999 0.6781675099837066 0.4827026321404384 0.4716789602284342 0.7803236119510226 0.6499248263381996 0.6414126532389268 0.6745747895327354 0.6152753090643716 0.6411295294719036 0.5947915197718996 0.9490942906282457 0.6957145868457915 0.6674800014568192 0.6772382256952219 0.6604606625808574 0.6747927216658814 0.5229715635189343 1:7 2:6 3:2 4:2 5:3 6:3 7:3 8:3 9:3 13:1 14:5 15:6 16:6 17:5 18:5 19:3 20:1 
-0.03694061992834737 -0 -0 -0.0007311161275872758 -0 0 0 0 0 0 0 0 0 0 0 0 0 0 0 0 0 0 0 0 0.06882960951864017 0 0 0 0.05819422876089723 0.007857426887246458 0.4404891164201794 1:6 2:7 3:3 4:3 5:2 6:2 7:3 8:3 9:3 12:1 13:3 14:5 15:5 16:6 17:5 18:4 19:3 
-0.4430744318189938 -0.2764310107631102 -0.2208896284923535 -0.2743454746166001 -0.2858212428302724 0.2859083313293875 0.3174719607235197 0.2404055924159296 0.2867054923378026 0.341485198534452 0.2681659047148052 0.1141678027154407 0.1279686126939177 0.3099933402627167 0.2721822240157157 0.1810092112129616 0.1787544468418598 0.3253579417779031 0.2512673747978066 0.249503645040218 0.2951177984631365 0.2426402611913178 0.2717664643581799 0.38919274196468 0.06122995651703845 0.2750516989132565 0.2875137454210132 0.2632064833665926 0.632100022933107 0.2121424431471222 0.4448410605777622 1:6 2:7 3:3 4:3 5:2 6:3 7:3 8:3 9:3 10:1 12:1 13:1 14:4 15:5 16:5 17:6 18:5 19:4 20:3 
-0.9984842070502118 -0.6680864585646606 -0.667105249067506 -0.8652135381006943 -0.8107881181734347 0.7625206042958389 0.6457596606181695 0.7883424492894443 0.9215048416466413 0.9661754888175557 0.8806351807542947 0.8752194243502054 0.9950765597236838 0.9154527430451759 0.9056850524036945 0.6572517670238052 0.6455670340737696 0.9204405634797375 0.8867729527216608 0.8760071959207328 0.8940949812853792 0.8403332847658799 0.8615864175537341 0.8859099763406401 0.9977279474051695 0.9547733200730423 0.8743191970475839 0.9240254449858283 1 1 0.9901726910526711 1:6 2:7 3:3 4:3 5:2 6:2 7:3 8:3 9:3 12:1 13:3 14:5 15:5 16:6 17:5 18:4 19:3 
-0.7910854444374367 -0.5829788051634801 -0.7037318835001375 -0.6620143128527026 -0.8074139980873756 0.7742578472492032 0.6113746190394095 0.8309707621811875 0.9587802069268629 0.7983414859091561 0.927508678359237 0.8869598345474906 0.9216837959763982 0.9656746845503603 0.9500442904154206 0.6949485319702658 0.681674749001948 0.9433267417175994 0.9434351616346452 0.9299772724428127 0.9207462916510629 0.8920985439909237 0.8980376256625797 0.8478876153416017 1 1 0.9086833392325546 0.9829992568450149 0.9005486986324281 1 0.7725555342169267 1:7 2:7 3:4 4:2 5:2 6:2 7:2 8:2 9:2 15:3 16:6 17:8 18:5 19:3 20:3 21:2 
-0.01125431748543607 -0.09531336281834989 -0 -0 -0 0 0 0 0 0 0 0 0 0 0 0 0 0 0 0 0 0 0 0 0.1857089298097496 0 0 0 0 0 0 1:6 2:7 3:3 4:3 5:2 6:2 7:3 8:3 9:3 13:1 14:3 15:5 16:5 17:6 18:5 19:4 20:3 
-0.6518021603901807 -0.4590902093905544 -0.5226134892933687 -0.7984219782088824 -0.6415027163480785 0.5930510045267546 0.5166127855242296 0.6369811703131016 0.7823944366817254 0.6083492683940805 0.7590319420233563 0.7277545705162132 0.7570021824648229 0.7987974245352075 0.7794424027424738 0.5145852805719484 0.5044584574490549 0.8245408490285295 0.7589080656381244 0.7453678894472943 0.7666245668381882 0.7039512306596449 0.7712871398109901 0.7556319736128182 0.7040109078995948 0.8329706478680716 0.7477860472815947 0.801386205352871 0.8066659718502872 1 0.6531715257077578 1:7 2:7 3:4 4:4 5:4 6:3 7:2 8:3 9:3 12:4 14:1 15:4 16:5 17:6 18:5 19:5 20:4 21:3 
-0.3323928799780722 -0.2104390954097848 -0.1962477905484729 -0.3760314083399945 -0.7084334780130122 -0.1940739513843213 1 0.3202786143897361 0.6300219851921396 0.2711422591943248 0.3215803984470302 0.2911743366256002 0.2786309421408813 0.2075278973534833 0.3056788563978031 0.2008165875102944 0.1960680197947336 0.4005392782441417 0.2982561739971253 0.288837395469646 0.3724682565259492 0.2823366179592476 0.4463865391780965 0.5241754813844735 0.2588513573682947 0.3237304217292183 0.2347539669057747 0.3067517798894423 0.3619046792007331 0.2874929811314443 0.3467213395408507 1:4 2:5 3:5 4:5 5:5 6:5 7:4 8:4 9:6 12:2 13:6 14:6 15:6 16:4 17:6 18:9 19:4 
-0.94706881922926 -0.5972544841928799 -0.7546680284204497 -0.9372210275905533 -0.9857501173047296 -0.6782555491027992 0.5822436973295876 0.9471004713425232 1 0.9179756139995723 1 1 1 1 1 0.7433654662521655 0.7281799594804078 1 1 1 1 1 1 1 0.9580103732970341 1 1 1 1 1 0.9054519452617609 1:3 2:6 3:5 4:7 5:7 6:6 7:5 8:7 9:7 12:3 13:6 14:5 15:8 16:5 17:4 18:6 19:9 20:6 21:1 
-0 -0 -0 -0 -1 -0 0 0.1562590831370678 0.3790469198363864 0 0 0 0 0 0 0 0 0 0 0 0 0 0.4834351391370725 0 0 0 0 0 0 0 0 1:3 2:6 3:5 4:4 5:5 6:5 7:4 8:5 9:5 14:3 15:8 16:5 17:4 18:6 19:9 20:6 21:1 
-0.2202151305412158 -0.1430778512864745 -0.2800545627597412 -0.3222338592604723 -1 -0.1738987078304852 0.8776739639843608 0.5357762045216066 0.2811715234148774 0.2531541866834462 0.430084467156265 0.2752169938598568 0.2985432656077025 0.8015379521663669 0.6211834708052232 0.195690575441772 0.1913125297477742 0.5918822050806032 0.3108700517616589 0.3247099856856515 0.4027112405808492 0.3067833917894882 1 0.6351121146090982 0.2512597445928373 0.3684555988620177 0.4546287712389626 0.3426714874975773 0.4250673481117704 0.2882606450264893 0.2004946916362023 1:3 2:5 3:4 4:5 5:6 6:5 7:4 8:5 9:4 12:2 13:5 14:6 15:5 16:4 17:6 18:7 19:6 
-0 -0 -0.1582714388863479 -0 -0 -0.05594118891245557 0.8052809383585998 0.06980005320477516 1 0.05268879783419351 0.2287748169655482 0.1458859739820134 0.1621167915605002 0.3374687533158757 0.2905093612651673 0.1309137322666172 0.1319114400015199 0.1966943995460677 0.2017639950833317 0.196775601354593 0.1619234860178254 0.1877678788080367 0 0 0.1680949912767879 0.2294713932826997 0.2521491175139691 0.2326381204549982 0.1126631450599063 0.1859185384806102 0.0426086725309596 1:3 2:6 3:5 4:4 5:5 6:5 7:4 8:4 9:5 13:3 14:8 15:5 16:4 17:5 18:9 19:6 20:1 
-0.8957308311938837 -0.5744001435660732 -0.7084354744495223 -0.8068835637416529 -0.9033819799728545 -0.6829691662936163 0.5951524757038236 0.8894450195053957 1 1 1 1 1 1 1 0.705582353002429 0.6897400692499503 1 1 1 1 0.988679817271266 0.9809475913034573 0.9949529049769799 0.9195842716573362 1 1 1 1 1 0.8900132143601631 1:3 2:5 3:5 4:3 5:3 6:4 7:3 8:4 9:4 14:3 15:8 16:5 17:2 18:3 19:6 20:6 21:1 
-0.3419406279542044 -0.1948148130498903 -0.2324411438282308 -0.4143429686544019 -0.8635839734295203 -0.2279367289970287 0.6065682918765367 0.3707200089148472 1 0.2706575419774355 0.3855518013268231 0.3436175883453675 0.3480596396618432 0 0.4460839965068565 0.2392323955363242 0.2347013823824891 0.5085270993388684 0.3608952077477106 0.355446523824281 0.3577684382403196 0.3125053734642917 0.9903187272050622 0.2023797262227515 0.3090707310480016 0.3815713112551213 0.3544840168383565 0.3808149229344899 0.3712225815723354 0.3506901150885381 0.3187413185861623 1:4 2:6 3:5 4:5 5:5 6:5 7:4 8:5 9:6 13:2 14:6 15:7 16:6 17:4 18:6 19:9 20:5 
-0.3980014307664962 -0.2608843007832744 -0.2702706632003099 -0.3612856645418335 -0.7601221652390558 -0.2933452481676871 0.22124179301778 0.4345319150209729 1 0.4870636931849041 0.4731592118398717 0.4546398297400497 0.456164249946557 0.9651908334077915 0.5485858074357555 0.3212481654029153 0.3141513784816279 0.7760738993428143 0.4781451052646407 0.4743290772074871 0.511659016473612 0.4445420988220505 0.4975689020705628 0.7108431161142487 0.4136452384453965 0.5441889192407351 0.4941881868351724 0.5130224044709675 0.4506404262790131 0.4580140811913395 0.4104461221634959 1:3 2:6 3:5 4:4 5:4 6:6 7:5 8:5 9:5 12:3 13:6 14:7 15:4 16:4 17:9 18:6 19:4 
-0.1776506353681604 -0.1019402255704908 -0.1191195008705211 -0.2967495686738316 -1 -0.1116469055294609 1 0.1460212306354464 1 0.1733108344520904 0.4127698508701844 0.1675185399829628 0.1462928959986154 1 0.6665581681216852 0.0836627173562441 0.08399840496917309 0.9503371589110094 0.1685729531194137 0.2041140093918747 0.3602384970781625 0.1260962685918766 1 0.4715363766245365 0.1058836744670846 0.3287250948434138 0.6819385327812832 0.3616678549468058 0.2547118462048513 0.1797967064142624 0.1240843693499195 1:3 2:6 3:4 4:4 5:5 6:5 7:4 8:4 9:5 14:3 15:8 16:5 17:4 18:5 19:8 20:6 21:1 
-0.5515107213601683 -0.3704426714592681 -0.4901419392242856 -0.5330215837437866 -0.9931399077643869 -0.4485125386597397 0.1634927339231063 0.6081771424011182 1 0.6046887148702484 0.7614429476260046 0.7025641834420382 0.7083297516519808 0.8565755341612185 0.8602407547303238 0.4903934487693173 0.4807960129066842 1 0.7341525221166986 0.7261823296126462 0.8151978097980185 0.6726072455037727 1 0.5262401350438751 0.6321053961039621 0.8251133287468964 0.7880207298178586 0.7904234623042911 0.6790619459725945 0.6987194990023143 0.5967605050956573 1:5 2:5 3:5 4:5 5:5 6:6 7:5 8:5 9:6 12:2 13:6 14:9 15:6 16:5 17:6 18:9 19:4 
-0 -0 -0.08383270416309273 -0 -0.4483953122296768 -0 0.5950954576348263 0.2819764530489133 0.5498852229384514 0 0.003449141437609541 0 0 0.6717586193596994 0 0 0 0 0 0 0 0 0.3598636515476258 0.452158870988835 0 0 0 0 0 0 0 1:3 2:6 3:5 4:5 5:5 6:6 7:5 8:5 9:5 13:3 14:6 15:7 16:4 17:4 18:9 19:7 20:5 
-0 -0 -0 -0 -0 -0 0 0 1 0 0 0 0 0 0 0 0 0 0 0 0 0 0.4939493067378486 0 0 0 0 0 0 0 0 1:4 2:5 3:5 4:5 5:5 6:5 7:4 8:5 9:6 12:2 13:6 14:7 15:6 16:4 17:6 18:9 19:4 
-0.7655744589442716 -0.5765682023104067 -0.3844123932255123 -0.7413380264887962 -1 -0.4704228032017002 1 0.4999280817729722 1 0.7788031944105245 0.6323048219775362 0.5974374962878268 0.6909286032305129 1 0.6587904416855969 0.3501285802322167 0.3424871606075228 1 0.5197375300687007 0.5129256595446035 0.8311425329919473 0.4889742262990925 1 1 0.4552301713944038 0.6302324677832574 0.7402488420791442 0.5504206881423065 0.6437887199269037 0.5354513454765192 0.6595408715038584 1:3 2:6 3:4 4:3 5:5 6:5 7:3 8:4 9:5 13:3 14:7 15:5 16:4 17:5 18:7 19:6 20:1 
-0 -0.001141911481206938 -0 -0 -0 -0 0 0 0 0 0 0 0 0 0 0 0 0 0 0 0 0 0 0 0 0 0 0 0 0 0 1:3 2:6 3:5 4:4 5:5 6:5 7:4 8:5 9:5 13:3 14:8 15:5 16:4 17:6 18:9 19:6 20:1 
-0 -0 -0 -0 -0.3383404820864024 -0 0 0 0.1385568490626497 0 0 0 0 0 0 0 0 0 0 0 0 0 0.1765049522821014 0 0 0 0 0 0 0 0 1:3 2:6 3:5 4:4 5:5 6:5 7:4 8:5 9:5 13:3 14:8 15:5 16:4 17:6 18:9 19:6 20:1 
-0 -0 -0 -0 -0.3562636038279501 -0 0 0 0.7544980042536571 0 0 0 0 0 0 0 0 0 0 0 0 0 0.8710963351744762 0 0 0 0 0 0 0 0 1:3 2:6 3:5 4:5 5:5 6:6 7:5 8:5 9:5 12:3 13:6 14:7 15:4 16:4 17:9 18:7 19:5 
-0 -0 -0 -0 -0 -0 0 0 0.9103650025046817 0 0 0 0 0.2566453489880399 0 0 0 0 0 0 0 0 0.7507649335433537 0.3569207452043195 0 0 0 0 0 0 0 1:4 2:6 3:5 4:4 5:5 6:5 7:4 8:5 9:6 13:2 14:6 15:7 16:5 17:4 18:6 19:9 20:5 
-0.1559763301983406 -0.1005461930500401 -0.1208945586195133 -0.04491028794746957 -0 -0.09397500417464491 0.1042151941929473 0.1657557527204104 0 0.1749301622606522 0.5630944366513306 0.1609731481950911 0.1653959396510134 1 0.3445575954803085 0.1253721712938256 0.1224817325646185 0.2310054394084992 0.1921740577572317 0.2248765921327219 0.2282446485007701 0.2409266417941482 0 0.2603547117698471 0.1608762414065712 0.3254040575491411 0.2077745883647341 0.3202616300173124 0.1577870842731305 0.1738879260202531 0.1315115497493753 1:3 2:6 3:6 4:4 5:5 6:5 7:4 8:5 9:6 13:2 14:6 15:7 16:4 17:4 18:6 19:9 20:5 21:1 
-0.1008317841364309 -0.06489096403093533 -0.05633383054839455 -0.1348933274351721 -0.8870917153988952 -0.0684572676942091 0 0.2288137282515494 1 0.03516208362393188 0.07651188968509252 0.08818963807184531 0.04720830333708062 0.4432922849809225 0 0.08846267027370347 0.0831434183127551 0 0.1182681350546768 0.1173543617746799 0 0.1156017922488444 1 0.238624175464023 0.1122250717399072 0.1062980955548205 0 0.1312153014400698 0.1008019791478078 0.1059001343875855 0.1002925284712555 1:3 2:6 3:5 4:4 5:5 6:5 7:4 8:5 9:5 13:3 14:8 15:5 16:4 17:6 18:9 19:6 20:1 
-0.459389599184408 -0.3478782513337715 -0.4166471118492278 -0.436619536243312 -0 -0.3753490076521548 0.3196957103638492 0.4109237187021955 0.7532337382606888 0.4758138429795917 0.4308047082598244 0.5471296583186854 0.5739419328481891 0.5802262726692953 0.3453117216324758 0.4188181088549106 0.4084788452150703 0.2764690138099625 0.6013094336244352 0.5716344479640157 0.4906411790066926 0.5712137737174126 0.6933460899686091 0.5201557039588249 0.5392093684137673 0.5823670046988636 0.3467570077519394 0.5412814283665145 0.5493377546306007 0.5609309069715843 0.4991614217802887 1:3 2:7 3:5 4:4 5:5 6:5 7:4 8:5 9:5 12:1 14:3 15:8 16:5 17:4 18:6 19:9 20:6 21:1 
-0.5027028560755836 -0.296802397409944 -0.4954965805470748 -0.4394706633542648 -0.3519881175113315 -0.3275758443991045 0.773414187830352 0.4077922331173985 0.02432079627206542 0.3765715420782904 0.5509119404454805 0.473779063727339 0.4857873258504911 0.4578627095800613 0.4724376551495015 0.3490652300413034 0.3421088622573474 0.3435113737831932 0.5174131305962839 0.5125830120956846 0.5023077893683616 0.4864984428535001 0 0.4624167288251763 0.4505351731638914 0.572568232188415 0.4909483238511921 0.5523058286882125 0.6272293615653004 0.495624480797594 0.4332674081044286 1:3 2:6 3:5 4:5 5:4 6:6 7:5 8:4 9:5 12:3 13:6 14:6 15:4 16:4 17:9 18:6 19:5 
-0.5194250342048636 -0.3591052989530381 -0.4249848123244008 -0.5328488519746024 -0.6716838003164323 -0.4184332795465472 0.2273343246965629 0.412679935706083 1 0.5692789748811411 0.7181290063268905 0.6356196031228692 0.6512784749246615 0.4692262501035703 0.7714259279959765 0.4570020344253634 0.4468778478897961 0.8637046101177132 0.6862387002936338 0.7073485291687367 0.7223586628460108 0.6442838851260261 1 0.3261528445820299 0.5890033991931942 0.7701519411355434 0.7356740511407636 0.7340065689246441 0.6691922662857628 0.655248998051897 0.5563962902659337 1:3 2:6 3:5 4:5 5:5 6:6 7:5 8:5 9:5 10:1 13:3 14:6 15:8 16:4 17:4 18:9 19:7 20:5 
-0 -0 -0 -0 -0.09023326828320517 -0 -0.09236931469092161 0 0 0 0 0 0 0 0 0 0 0.02368100366490287 0 0 0 0 0 0 0 0 0 0 0 0 0 1:3 2:5 3:6 4:4 5:4 6:5 7:2 8:4 9:4 13:5 14:6 15:5 16:5 17:6 18:7 19:3 
-0.8226363553711956 -0.5870269088022587 -0.6373717335297538 -1 -0.9099298625058159 -0.6592668006000643 -0.9723851506197749 0.7708159378032391 1 0.699388610682364 0.8825063161777368 0.8244172719388916 0.8243390134069287 1 0.890920669937341 0.6294036797916299 0.6177559668731939 0.9841842639475576 0.8442811771864795 0.8397777837693245 0.8791207173705137 0.8113486122021277 1 1 0.7679651191252759 0.9094948336811409 0.8495578661833958 0.8933817067409731 0.8082297788815282 0.8135409450773863 0.7676705874151069 1:4 2:6 3:4 4:4 5:5 6:6 7:2 8:3 9:5 12:1 14:3 15:6 16:5 17:5 18:6 19:8 20:5 
-0.7890303102818985 -0.6508408420786853 -0.6012486644071071 -0.6976174342441717 -1 -0.4978119752862736 -0.4977294918304251 0.6833641612604042 0.6355602924446827 0.7086818513503331 0.7121695470370589 0.6953517420667237 0.6590872495157608 0.8666233586822484 0.8080930063996299 0.4988243729311728 0.4872168084382923 0.7346473015081337 0.6990580754870759 0.6876292151375146 0.7059843086127489 0.6447462185526367 0.4754553161354562 0.7896891491547045 0.6102869676411757 0.7512553480318936 0.7183025002190502 0.7012839025715799 0.8310398763166584 0.6895573609731914 0.6211920284139747 1:2 2:5 3:4 4:4 5:4 6:5 7:2 8:3 9:4 14:3 15:6 16:3 17:5 18:6 19:7 20:3 
-0.4966346194957761 -0.3339039695807419 -0.3808906153672705 -0.471316343672235 -0.9229399244603673 -0.3675154911890153 -1 0.6464050946948589 0.7475637320248238 0.4740491299281497 0.6705407130912434 0.5276153161527509 0.5301830264819833 0.9275965777929956 0.6482056067465792 0.4160154103026119 0.4075950906205081 0.628648629589639 0.5636256869769489 0.5763143637805126 0.6584706679260663 0.5563665942562482 0.9520847551995596 0.7933716190186026 0.5066906671365073 0.6193684028452542 0.5875625246418814 0.6052503310860347 0.512255406163015 0.5288002265999868 0.476334350249879 1:3 2:5 3:5 4:6 5:6 6:6 7:2 8:5 9:5 13:4 14:6 15:6 16:5 17:5 18:8 19:6 20:3 
-0.7968309321486864 -0.5381043855623194 -0.5831480756658372 -0.6298950776389622 -1 -0.5549537475767683 -0.99794927446431 0.6847892067810942 0.962136791470539 0.7870581183228416 0.7204964963685939 0.6925347871522219 0.7251404992292976 0.7900613824783022 0.7981085502587781 0.5271300556259002 0.5168188572868476 1 0.711036727688371 0.7059068268851237 0.8540920609325897 0.6787754841515663 0.8381750371368651 0.8692497722126705 0.6446395361021025 0.7674220053698845 0.7740202149045944 0.741597727958791 0.8735898289684125 0.7281880091222228 0.6806721653920849 1:3 2:5 3:6 4:4 5:4 6:5 7:2 8:4 9:4 13:5 14:6 15:5 16:5 17:6 18:7 19:3 
-0 -0 -0 -0 -0 -0 -0.5125415738359375 0 0 0 0 0 0 0 0 0 0 0 0 0 0 0 0 0 0 0 0 0 0 0 0 1:3 2:6 3:4 4:4 5:5 6:6 7:2 8:3 9:5 13:3 14:6 15:5 16:5 17:6 18:8 19:5 
-0.6736815588961264 -0.4514560850202488 -0.5544204349436399 -0.6596763164757506 -0.6302590654271891 -0.5352485105880876 -1 0.6700141445882163 0.9021655523900245 0.6668892508771632 0.7708350849101154 0.7509818485213783 0.7503469828722897 0.8824081914839285 0.7485410750929913 0.5801032432843108 0.5689762862207686 0.77174949830224 0.780805628639559 0.77096988428647 0.9827314396656608 0.7329098256706482 0.9655064585257069 0.80765351480999 0.7071653574956825 0.8376398658058295 0.7616519236501685 0.8166857147301996 0.751889304391409 0.7526380408686592 0.6941968006088003 1:3 2:7 3:6 4:6 5:6 6:6 7:2 8:3 9:5 12:3 13:6 14:6 15:6 16:5 17:8 18:6 19:4 
-0 -0 -0 -0 -0.4130363324369523 -0 -0.6008171471340933 0 0.267535632818366 0 0 0 0 0.1237131851755166 0 0 0 0 0 0 0 0 0.3367214889022941 0.3419455843241966 0 0 0 0 0 0 0 1:3 2:6 3:4 4:4 5:5 6:6 7:2 8:3 9:5 14:3 15:6 16:5 17:5 18:6 19:8 20:5 
-0.5720229602123668 -0.4436211630184473 -0.4038860132277222 -0.4217321266395092 -0.0007107751528609221 -0.4009941861430978 -0 0.465366531676722 0.1339421759657836 0.4660555266981455 0.5242559393955825 0.5376634307363813 0.5549899332624747 0.6105812096179364 0.5378434122904547 0.3945774310565813 0.3871076410397239 0.5229623433986362 0.5313655658869436 0.5161906459469429 0.572100521260043 0.5059982396248238 0.165842688048621 0.6586513969064947 0.4821743956066739 0.5710122081195327 0.5108830493821462 0.5502912686978848 0.4902961120662446 0.5163501168036247 0.5278002752823446 1:3 2:6 3:4 4:4 5:5 6:6 7:1 8:3 9:5 13:3 14:6 15:5 16:5 17:5 18:8 19:5 
-0.2312674020885256 -0.1459170301362574 -0.32408002797577 -0.363750758845384 -0.6900982253552428 -0.2069112699538682 -0.7521712201474349 0.3249991481008662 0.8571665725229831 0.2655709608075741 0.3051436863600541 0.3138641014999847 0.3243752063792593 0.3025339927556102 0.3964854921605949 0.2359130007379742 0.2319846234939125 0.6064278069996099 0.3258630600570497 0.3356436304798501 0.3724981925341367 0.3008087942999489 0.5714368455539143 0.2662968786591041 0.2869068232197348 0.3356743115284695 0.3824243262300266 0.3291494193806785 0.3761611765055897 0.3230890244431321 0.2705518383587124 1:3 2:5 3:5 4:6 5:6 6:6 7:3 8:3 9:5 13:3 14:5 15:7 16:5 17:5 18:8 19:6 20:3 
-0 -0.03195260832399435 -0 -0.2509806876087451 -0.9420243190016772 -0 -0.9451942846677075 0 0.8703147694120335 0 0 0 0 0 0 0 0 0 0 0 0 0 0.5178569342297132 0.3352113342124437 0 0 0 0 0 0 0 1:3 2:6 3:4 4:4 5:5 6:6 7:2 8:3 9:5 13:3 14:6 15:5 16:5 17:6 18:8 19:5 
-0.4791819678173996 -0.3382439093149334 -0.4483870594155926 -0.5383739806290612 -0.9557158639433077 -0.3491610142301479 -0.7530490265640735 0.492806828257366 0.5566792817355156 0.4382719526859182 0.5354753015701431 0.5067709689404002 0.5075695697838035 0.5297386024682693 0.6135405697260768 0.3764107532958253 0.3693294086247885 0.6668850005147563 0.5166527049101756 0.5135986210270636 0.5271812051537802 0.500601196013494 0.5361846823899137 0.5624123218275445 0.4583197436872668 0.5497764962693187 0.5347467643422065 0.5291049912435777 0.5744602465579908 0.5008136411196477 0.450440668814745 1:3 2:5 3:5 4:6 5:6 6:6 7:2 8:3 9:5 12:3 13:5 14:6 15:5 16:5 17:8 18:6 19:3 
-0.006009714718267604 -0 -0 -0 -0 -0 -0 0 0 0 0 0 0 0 0 0 0 0 0 0 0 0 0 0 0 0 0 0 0 0 0 1:3 2:5 3:6 4:4 5:4 6:5 7:2 8:3 9:4 14:4 15:6 16:5 17:5 18:6 19:7 20:3 
-0.4785063474797019 -0.2630761067005067 -0.3041175004064505 -0.3404635213299749 -0.4716361777102802 -0.3373819462788069 -0.7472022849576543 0.4135273259250675 0.6287864613393175 0.4416150884227252 0.435223863218888 0.3958660987284592 0.4269339159227626 0.5119069371037821 0.4723246296686434 0.3098272071728299 0.3044248701806074 0.7699460994352866 0.4129803559268064 0.4131861429265838 0.5234825898497513 0.4031636784787361 0.6564374803407429 0.5066524260147082 0.3794936954199326 0.453139177158325 0.4959518479096307 0.4459171214851684 0.6054898174865826 0.4666388987383184 0.3863055627553843 1:3 2:5 3:6 4:4 5:4 6:5 7:2 8:4 9:4 14:5 15:6 16:5 17:5 18:6 19:7 20:3 
-0.5441034885900646 -0.3615274964254564 -0.4641064471994495 -0.5377158799268185 -0.6232800759090629 -0.4163334287490902 -0.5542648697487434 -0.4161521798558738 0.8379532801635399 0.4834840645248298 0.7483275353473257 0.6252325559622971 0.6648583688573974 0.7783691316345179 0.7977848510161718 0.454589646929027 0.4478756587474745 0.7403955134729469 0.7743502822065924 0.7397301885782341 0.8517279491987346 0.7634376184001315 0.6606980403638461 0.3095623445155101 0.6010960762093849 0.8662409219788427 0.6516892386261204 0.7647070774928083 0.667239841557133 0.6747425394926647 0.5200367351748157 3:1 4:6 5:3 6:6 7:6 8:5 9:7 12:3 13:6 14:5 15:4 16:4 17:6 18:6 
-0.8574894285786046 -0.5593582485440923 -0.6982912270188169 -0.8300622511129416 -1 -0.5977958855060383 -1 -0.8309269225040198 1 0.8341390004752657 1 0.9214098406431992 0.9476555259679114 1 1 0.6453061179467419 0.6353418490886664 1 1 1 1 1 1 0.9987062450505857 0.8519456523184534 1 1 1 0.957014291724308 0.9462402895497716 0.8215219121277255 1:4 2:2 3:3 4:6 5:4 6:5 7:4 8:4 9:6 12:1 13:4 14:6 15:4 16:2 17:4 18:7 19:7 20:3 
-0 -0 -0.2316314482163976 -0 -0.1895503220280801 -0 -0.02056440587563887 -0 0 0 0 0 0 0 0 0 0 0 0 0 0 0 0 0 0 0 0 0 0 0 0 1:2 2:3 3:4 4:4 5:5 6:5 7:7 8:7 9:4 12:1 13:3 14:4 15:6 16:6 17:7 18:9 19:5 
-0.3769363714893337 -0.2618182438391313 -0.2637533000225531 -0.4255158110984902 -0.7841935421799773 -0.2436382977424389 -0.4230479897759985 -0.3548978591508803 0.459430969171094 0.3192884778782411 0.4216075968891355 0.3595076932731349 0.3675211374107389 0.4298311688719121 0.4228083577994765 0.2534757944827223 0.2506906299787485 0.4003094889716908 0.3909809882645817 0.3579032882655275 0.3823631832802445 0.3344007881477604 0.4830258830506547 0.4733518552990251 0.3368962237694659 0.4469542079941036 0.3925707329898964 0.3976680675992104 0.5011551014492409 0.3779241809997002 0.3223167145562767 1:2 2:3 3:4 4:5 5:4 6:4 7:6 8:7 9:5 13:1 14:2 15:4 16:5 17:6 18:6 19:8 20:7 21:1 
-0.14223177711968 -0.1053127968195989 -0.1489472951518735 -0.1360372354026421 -0.1614296564209443 -0.1065324545367015 -0.1340923528512816 -0.0943961738370553 0.1493834837621914 0.169370508018834 0.1970823509450035 0.01118798407971054 0.1752476901526254 0.22792959101753 0.1455905127878921 0.117243476618696 0.1159547578258261 0.2198885290805085 0.01983123975475208 0.006877354962658808 0.07796758509425533 0.1663029592096495 0.1766055285063258 0.2810763789057367 0.1555846679750559 0.3576241457846834 0.2627082252827492 0.185379974875861 0.3748579348183392 0.1883568877176042 0.165848203826723 4:5 5:2 6:5 7:5 8:4 9:6 13:3 14:3 15:4 16:3 17:3 18:6 19:5 
-0 -0 -0 -0 -0 -0 -0 -0 0.1109019687017791 0 0.1104524380113011 0.360199030175421 0 0 0.06853992662581875 0 0 0 0.3375056458554282 0.5116666116287582 0.2187661960126638 0 0 0 0 0.4849650824771436 0 0 0 0 0 4:6 5:2 6:6 7:5 8:4 9:6 13:3 14:5 15:4 16:3 17:3 18:6 19:5 
-0.2049206848528836 -0.1249529407201235 -0.1742432224778935 -0.2014604495638445 -0.2037018633218556 -0.1552008919405896 -0.2013920024405394 -0.1541875429744511 0.2917557140658887 0.3244689364919519 0.2791156024944607 0.8392407840845302 0.27128162666112 0.3056927080456801 0.297620935238875 0.1741914584575954 0.1713401022575952 0.273029297499955 0.3379759606827345 0.4450140561969321 0.3880988504126582 0.3643669482292433 0.310373491891959 1 0.2339599384867376 0.2733179302089113 0.339786960194678 0.2782239071298289 0.2066481917262506 0.269189036364774 0.2822084563903247 4:6 5:2 6:6 7:5 8:3 9:6 12:3 13:5 14:4 15:3 16:3 17:6 18:4 
-0 -0 -0 -0 -0 -0 -0 -0 0 0 0 0 0 0 0 0 0 0 0 0 0 0 0 0 0 0 0 0 0.03152602016414415 0 0 1:2 2:3 3:4 4:4 5:4 6:4 7:7 8:7 9:4 13:1 14:3 15:4 16:6 17:6 18:6 19:9 20:4 
-0.3835848096249089 -0.2725580350079541 -0.4572415514721128 -0.3603658240839642 -0.3753177884424154 -0.2881901055702722 -0.3675659133312109 -0.2863318954030894 0.5287726376983989 0.3908389656482452 0.5774656527874555 0.4360013221865558 0.4544290300152357 0.5213207094999996 0.5703934812909397 0.3141810386092457 0.3082151417912528 0.5426607626562007 0.5146614382741997 0.4977308135786086 0.4807630910527824 0.450696292998975 0.4562777609753816 0.3834595229153121 0.4141405479459269 0.602465652031887 0.4781509888323566 0.5296494552356413 0.4862344534024701 0.4590879950783219 0.3844902678030686 1:2 2:2 3:3 4:4 5:3 6:4 7:7 8:7 9:4 13:1 14:3 15:4 16:5 17:4 18:6 19:9 20:4 
-0.3539143749044203 -0.21660528508053 -0.3352378996684186 -0.3381961282008965 -0.293966352613714 -0.2931633067869356 -0.3976409169370956 -0.2342045772733688 0.520805929700594 0.3995534874223428 0.5449341620148098 0.4653452822264104 0.4717671619403113 0.5909364845626719 0.5258452853250013 0.3266199112194779 0.3209805737291097 0.5416471854820201 0.5200317201075343 0.5527188914288038 0.5000441674631808 0.527126969833976 0.477141936713718 0.3966528000369898 0.4297633071013665 0.5807606742638398 0.5024097552933402 0.6004260571669613 0.4570037547348979 0.4725617715725664 0.4003928194499337 1:2 2:3 3:4 4:5 5:4 6:4 7:7 8:7 9:5 10:1 13:1 14:3 15:4 16:5 17:6 18:6 19:8 20:7 21:2 
-0.4074706026558781 -0.2805854425534748 -0.3217823292556767 -0.3769954249371732 -0.4360600615087121 -0.2918938986276327 -0.3792191565696478 -0.2882986763907066 0.5220998576183014 0.4885782752237467 0.4916667446481172 0.5470779705047488 0.4716749475097087 0.7280061073778425 0.5344586212410148 0.3198774760588166 0.3144296420900694 0.5147502263722292 0.6175498775345474 0.4805191627792983 0.4508635664049201 0.3874722961421499 0.4752877848815205 0.9621087072997463 0.4256881086461072 0.5911075296147679 0.5872156125508724 0.5178154428987304 0.6599135166152198 0.4898289926598616 0.6039063079583992 4:6 5:1 6:5 7:4 8:4 9:6 12:1 13:3 14:4 15:3 16:3 17:5 18:6 19:1 
-0.3202845039216308 -0.2265169609304091 -0.2776934406022854 -0.3106208456578708 -0.3493991669653346 -0.2415371884012637 -0.3132460351158378 -0.2337001059081343 0.3802150721910328 0.4136744695612424 0.4069389429651071 0.7696167223232998 0.3701543415991431 0.4284161707083142 0.3755156688940385 0.2647382433310248 0.2598727256856578 0.4338818332661368 0.3714604938370251 0.3359435959294004 0.4365994565865975 0.5198284975718357 0.367527450850706 0 0.3438932718803368 0.5759480165022939 0.4364538376013553 0.4345716401472613 0.4740808530078673 0.4021021950977709 0.3012743834854782 4:5 5:2 6:6 7:5 8:4 9:6 12:3 13:5 14:4 15:2 16:4 17:6 18:4 
-0.4870348297717454 -0.3189889973549656 -0.4054211456585561 -0.480202767309412 -0.5357796198904675 -0.3754801067697798 -0.4887450782911239 -0.3607971752140385 0.6824884398372426 0.4698234245929451 0.6894764716035414 0.4593982399291943 0.5886973485532772 0.7349267831124898 0.6526487070486235 0.4101525123126853 0.4047313125897592 0.6453859116389778 0.4888915591156903 0.2733282666754813 0.8046455346373892 1 0.5946459130192921 0.7025006699648372 0.5421463309988926 0.4577043263159025 0.5447273035944131 0.6904511845797793 0.4963308954086529 0.6107056813313104 0.4751009061139395 4:6 5:2 6:6 7:5 8:4 9:7 10:2 13:3 14:5 15:4 16:4 17:4 18:6 19:6 
-0.1256166824136289 -0.1259518796061447 -0.09236106139964048 -0.06092714765985144 -0.1124085178934583 -0.06961662261353671 -0.2634762801734961 -0.134619599618985 0.2489445088629132 0.1572207342387625 0.2041968119987995 0.1401474575213701 0.1416466793572377 0.2068494798093305 0.2647747315474586 0.1008189541621267 0.09932932561359595 0.2192736494266338 0.1793189419573436 0.1830414776324083 0.1612059475232548 0.1897077145279432 0.1481745823324577 0.1700822230112762 0.1335318667486252 0.1940886774655031 0.1788315602374617 0.169696211473799 0.2288589483890318 0.159710173763062 0.1114394321283122 1:2 2:3 3:4 4:4 5:4 6:4 7:7 8:7 9:4 12:1 13:3 14:4 15:6 16:6 17:6 18:9 19:4 
-0 -0 -0 -0 -0 -0 -0 -0 0 0 0 0.1752350022997602 0 0 0 0 0 0 0 0.6353148743312299 0 0.183449157253592 0 1 0 0.3914731022643496 0 0 0 0 0 4:6 5:2 6:5 7:4 8:4 9:6 12:1 13:3 14:4 15:3 16:3 17:5 18:6 19:2 
-0 -0 -0 -0 -0.4328081157199538 -0 -0 -0.1254208963107735 0 0 0 0 0 0 0 0 0 0.0659940669434864 0 0 0 0 0 0 0 0 0 0 0 0 0 1:2 2:3 3:4 4:5 5:4 6:4 7:6 8:7 9:5 12:1 13:2 14:4 15:5 16:6 17:6 18:8 19:7 20:1 
-0.08745044634254291 -0.08040122038404146 -0.09806401097055802 -0.04882182900410181 -0 -0.0527357913986648 -0.003085365084537416 -0.002255976048346967 0.04087580862581097 0.07598572746410516 0.1346629690557533 0.08193427300658719 0.08906556471787344 0.1147140389087872 0.05639832673660516 0.06116298229295697 0.06072536263488672 0.04172436580623509 0.08745536727401186 0.0777628046066937 0.08770990964040826 0.1042758586000007 0.02670821447566719 0.09891058085175669 0.08185959610775143 0.1059945535652577 0.07297165134616365 0.103709595117022 0.07561916766000117 0.08732168613238554 0.07620939861014928 1:2 2:3 3:4 4:4 5:3 6:5 7:7 8:8 9:5 13:2 14:4 15:3 16:5 17:6 18:8 19:8 20:4 21:1 
-0 -0 -0 -0 -0 -0 -0 -0 0 0 0 0 0 0 0 0 0 0 0 0 0 0 0 0.776956603002922 0 0 0 0 0 0 0 4:6 5:2 6:6 7:5 8:4 9:6 12:3 13:5 14:4 15:3 16:4 17:6 18:4 
-0 -0 -0 -0 -0 -0 -0 -0 0 0 0 0.4624198209384622 0 0 0 0 0 0 0.425181370993069 0.5612637871395719 0 0 0 0.2471096378748966 0 0.4487035394492402 0 0 0 0 0 4:6 5:2 6:5 7:4 8:4 9:6 13:1 14:3 15:4 16:3 17:3 18:5 19:6 20:2 
-0.3277360996254996 -0.1965838247768427 -0.2003848219867937 -0.3709029912539181 -0.3550788106546059 -0.2769627958260387 -0.1833693049230513 -0.2117077290563791 0.3968632591529564 0.3066600878396822 0.3432610922804686 0.3769283990920775 0.3885330591568666 0.3762470852324708 0.3476458965213966 0.2621213811962838 0.257478925671362 0.599415397715293 0.3912917955766155 0.3740674892317229 0.390399919959802 0.3355135348097403 0.3844913641868737 0.3346572409657452 0.3463736045469512 0.442228049561847 0.3839278266452602 0.4237096700913292 0.4359300309876704 0.3814848695379509 0.3444206888327885 1:3 2:3 3:4 4:4 5:4 6:4 7:7 8:7 9:4 12:1 13:3 14:4 15:6 16:7 17:6 18:9 19:4 
-0.5410093333999548 -0.356867566350343 -0.4998409285107812 -0.5448649484161405 -0.5747510341238614 -0.419044984925303 -0.6600782841141677 -0.4334483290529769 0.7378416103923188 0.5709866807676269 0.7315619822085675 0.6629601115382869 0.6759640320789989 0.7780341028127026 0.7206190385509769 0.4680135960067593 0.4612638837284676 0.6457532330260997 0.7308851914729504 0.7126980210051412 0.7091014129114536 0.6698483518906504 0.7127571318049896 0.6394546648547218 0.6181207970622574 0.8252375456801792 0.6821647267575085 0.7677728752586874 0.6705196099735933 0.6763168309024584 0.5752365804458474 1:3 2:3 3:4 4:4 5:4 6:6 7:7 8:8 9:4 12:2 13:4 14:4 15:6 16:6 17:8 18:9 19:4 
-0.3611579452104429 -0.2239645932792066 -0.4740827243493609 -0.3721991545111751 -0.4722942275284166 -0.2975125485718321 -0.4728035177664436 -0.3242569080342599 0.5522339570429375 0.4000123219710862 0.4489795694124847 0.471060916872287 0.473913860044797 0.5607957039574429 0.5094844206819205 0.3283936038339822 0.3232364975270329 0.5091452846738254 0.5078088248900279 0.5024707384497452 0.4968036533435681 0.4583069584505949 0.5452654311132606 0.4343157031830456 0.433476217257753 0.5657532526211437 0.4890179588541097 0.5347184185158412 0.4053385391013507 0.4767489326531074 0.4020930076670607 1:3 2:3 3:4 4:4 5:4 6:6 7:7 8:8 9:4 13:2 14:4 15:4 16:6 17:6 18:8 19:9 20:4 
-0.5477857788774444 -0.3638465031973678 -0.4433089735152125 -0.536491737655676 -0.6125616459686065 -0.4068529148228429 -0.5263335028697222 -0.4202938635867013 0.7732033133140124 0.6239899943370437 0.9319099393952883 0.8776719415060517 0.6588992419831827 0.7408314261954865 0.81084203656293 0.4483911071889342 0.439310221861459 0.7374967400207706 1 0.9440742180153059 0.8362466898884736 0.6601673150538107 0.6654054348943159 0.8863480788895024 0.5915728715848151 0.8229325582156702 0.8507588424832883 0.8046027000915521 0.840672085804455 0.6934827623081313 0.631623890154926 4:6 5:2 6:5 7:4 8:4 9:6 13:1 14:3 15:4 16:3 17:3 18:5 19:6 20:2 
-0 -0 -0 -0 -0 -0 -0 -0 0 0 0 0.01798271638266564 0 0 0 0 0 0 0 0 0 0 0 0.4126813337740859 0 0 0 0 0 0 0 4:6 5:2 6:6 7:5 8:4 9:6 13:3 14:5 15:4 16:3 17:4 18:6 19:4 
-0.3841631172422789 -0.2631880704302835 -0.1924286814693507 -0.411903801116306 -0.3538648252249452 -0.2168735018142628 -0.4970546705244756 -0.2461919688677939 0.5000927214382184 0.2765521866904661 0.4426484235379919 0.3099679323532686 0.3163922032251082 0.419978875910077 0.435360666767425 0.2178852519221585 0.2144249835994053 0.4259519678363656 0.3576300014221527 0.3403463292572281 0.3324074516871192 0.3387710111941906 0.3988302188182153 0.4211352737140092 0.2876848548780594 0.4033238565087521 0.3502960515662224 0.3688235898488324 0.5798435964751824 0.3240431111007929 0.2898718995893226 1:3 2:3 3:4 4:5 5:4 6:4 7:6 8:7 9:5 12:2 13:2 14:4 15:5 16:6 17:6 18:8 19:7 20:1 
-0.2673835254959659 -0.1206231796475115 -0.06394828153626601 -0.3270702238279616 -0.8201916784801844 -0.2705272916595071 -0.1732681038784301 -0.3195552242782562 -0.09103356563819555 0.265504659494719 0.03915600742205212 0.2929900224201274 0.2010420633563494 0.08816542246099476 0.9900995969952849 0.0122718471254291 0.01765325866665043 1 0 0 0.1193576013255322 0.04750030181611668 0.1731046002014657 0.1526080893741676 0.05376583682454961 0 0.5108206101212881 0.03256608337225653 0.7705608978513977 0.2506198544355491 0.1325114405002499 1:3 2:3 3:2 4:5 5:4 6:4 7:4 8:4 9:5 14:4 15:9 16:6 17:4 18:4 19:5 20:2 
-0 -0 -0 -0 -0 -0 -0 -0 -0 0 0 0 0 0 1 0 0 0 0 0 0 0 0 0 0 0 0 0 0 0 0 1:3 2:2 3:2 4:5 5:4 6:4 7:4 8:4 9:5 14:4 15:9 16:6 17:3 18:4 19:5 20:2 
-0 -0 -0 -0 -0 -0 -0 -0 -0 0 0 0 0 0 1 0 0 0 0 0 0 0 0 0 0 0 0 0 0 0 0 1:2 2:2 3:2 4:6 5:4 6:4 7:4 8:4 9:6 13:2 14:8 15:8 16:3 17:3 18:6 19:4 
-0.5264624783831535 -0.3484791218282489 -0.4578844620292099 -0.5220949567279231 -0.5271430948839173 -0.3922987341138736 -0.5996589015424146 -0.3590601430936231 -0.5878401438093481 0.5703490983815597 0.7312216005044888 0.6794537851948945 0.6978475557072601 0.8096447058510603 0.7863860810118833 0.4376971233321691 0.4395045374310017 0.7576365339992451 0.7451363208553635 0.7548003366747115 0.720704522256843 0.6783405761987077 0.8910951325270401 0.6286305124352751 0.6245671083684255 0.8629478928412629 0.7132575678618328 0.8083047938242137 0.6915737058630723 0.7048898734155638 0.5635512892516691 1:5 2:6 3:5 4:8 5:8 6:7 7:7 8:6 9:7 12:6 13:6 14:6 15:9 16:6 17:4 18:9 19:8 20:5 
-0.3614414378268598 -0.2416165467110947 -0.3111896941681821 -0.3489302938503586 -0.2573128779895812 -0.2604563409366688 -0.234867071562636 -0.2047126259256458 -0.6495269183510244 0.4112413660138836 0.5390509311350504 0.5804650967547232 0.457293681232622 0.5736499760884884 0.5579534119873666 0.2958728134095761 0.2984350742786606 0.4217556822204722 0.7626340050830313 0.7467219554503431 0.6428814043318426 0.5499816908811929 0.4305743045543241 0.593000665254629 0.4392338189187421 0.8761726505141456 0.5900893778740581 0.557887882262073 0.592854560010264 0.6478690003986418 0.4151232457414776 1:2 2:1 3:2 4:6 5:4 6:4 7:4 8:4 9:6 13:2 14:7 15:8 16:3 17:3 18:6 19:4 
-0 -0 -0 -0.008030481126518208 -0.05098390101493273 -0 -0 -0 -0 0 0 0 0 0 0.111976554098467 0 0 0 0 0 0 0 0 0 0 0 0 0 0 0 0 1:2 2:3 3:2 4:6 5:4 6:4 7:4 8:4 9:6 13:2 14:8 15:8 16:4 17:3 18:6 19:4 
-0 -0 -0 -0 -0 -0 -0 -0 -0 0 0 0 0 0 0.7029382063041134 0 0 0.5755546865707309 0 0 0 0 0 0 0 0 0 0 0 0 0 1:3 2:3 3:2 4:5 5:4 6:4 7:4 8:4 9:6 12:1 13:4 14:9 15:6 16:4 17:4 18:5 19:2 
-0.4819787336558322 -0.3300563522264364 -0.4286633326741432 -0.4846624944027717 -0.7849417915153996 -0.3602235315775084 -0.5704794722874516 -0.3883510078380089 -0.737709276943039 0.5270773225736379 0.7470514893885879 0.7459524309831059 0.6221200045294267 0.8280773433624631 1 0.4137869128243933 0.4091028238234764 1 0.8547488883944283 0.8892949315387123 0.9353828116330832 0.7303172992805577 0.6663522332888849 0.7350704814106324 0.5824466783126595 1 0.7292458449392465 0.7802352339361971 0.6424260600569289 0.7011460798328382 0.5103693703016876 1:2 2:2 3:2 4:6 5:5 6:5 7:4 8:5 9:6 12:2 13:6 14:9 15:5 16:2 17:6 18:5 19:2 
-0.0276880777828557 -0.08917721969679182 -0.1792571265682271 -0 -0 -0.01489227384318802 -0.1221453109672226 -0 -0.2531071457567999 0.2329997296379107 0.3642930361057001 0.340307484720358 0.3623256564675817 0.3339693603322915 1 0.2274031852838908 0.2201612580752901 0.7947392058342242 0.4619702115344671 0.4657130888628441 0.317529162974959 0.2944791714527618 0.2202332385822917 0.2131739066926034 0.3368295510408862 0.5606160284429942 0.4807254580294696 0.4034928328361227 0 0.5842923086525983 0.197008409300503 1:3 2:2 3:2 4:5 5:4 6:4 7:4 8:4 9:5 14:4 15:9 16:6 17:3 18:4 19:5 20:2 
-0.312861881175221 -0.1996088528257219 -0.2765929382056165 -0.2992131449033952 -0.39838573220167 -0.2279862188765446 -0.6086933425813845 -0.2353130966776357 -0.4046034874278445 0.3349736316016066 0.4529210931464441 0.4026734379365918 0.4370769809930407 0.6465236556218007 0.4221622375738498 0.255386577310509 0.2564345990849654 0.6054634196198817 0.4307792189518709 0.4191109732051077 0.4643275534906844 0.3976723519680113 0.8408871871576967 0.436163691106435 0.3648029484081486 0.5050055255393101 0.4586126861131954 0.4962294292302937 0.4400286962064459 0.4170803310952738 0.313031714268851 1:4 2:5 3:6 4:3 5:6 6:5 7:5 8:4 9:6 13:3 14:7 15:8 16:6 17:4 18:8 19:7 20:1 
-0.4359966269004582 -0.2861554013955893 -0.37081466328942 -0.4198675227088772 -0.4162012868878291 -0.3223247084705301 -0.3646615115110984 -0.2865818661070495 -0.4845156291693556 0.4691337881003728 0.59599214347435 0.5307964826006393 0.5708648089142395 0.6482828625837128 0.6780423419904942 0.3592446959977713 0.3617824541749942 0.709594792114824 0.6069689766524418 0.670073969964971 0.5551273971983226 0.5606303028439399 0.4954263756649275 0.5217335169523416 0.5140545627454638 0.7115866788687746 0.5497168545263104 0.6898702750423453 0.563711129517068 0.5805370290693902 0.4565637197797559 1:3 2:4 3:3 4:8 5:6 6:7 7:7 8:5 9:7 12:4 13:4 14:8 15:9 16:8 17:4 18:3 19:6 20:4 
-0.2122114042109629 -0.1518043622697774 -0.199089043453282 -0.2079372281750203 -0.4326670873381068 -0.1683236608736387 -0.1995774841543263 -0.2084722120435021 -0.3191984118924169 0.2180991981480993 0.4004306722275773 0.2844796484930938 0.2764353859490487 0.3652314274566576 1 0.1886272408173789 0.1914016969657759 0.5756641857405512 0.3465325369911832 0.324852505536656 0.42697464194541 0.2909904484486804 0.3084436179778552 0.2281156212232385 0.2521634694381744 0.4184096872369868 0.2760084754216106 0.3977639385633404 0.2494329064824233 0.1905080435394679 0.2168280906271624 1:2 2:2 3:2 4:6 5:5 6:5 7:4 8:5 9:6 13:2 14:6 15:9 16:5 17:2 18:6 19:5 20:2 
-0.2551640111739827 -0.200269091644208 -0.2536856114592885 -0.3143911840344983 -0.3044139926915507 -0.2087266465500625 -0.561455155214994 -0 -0.3643261128264448 0.3088459692308221 0.4442490105525219 0.366418807642178 0.3912131906087236 0.4435370904218016 0.3927385529712258 0.2636268674094659 0.2643076912446203 0.1883081686157073 0.4420004278649057 0.4254418826423116 0.3818687209380224 0.4076289619872029 0.4654713908017678 0.3118026824953457 0.374922008944296 0.5125519130254376 0.3851497804357677 0.4803906660726316 0.389925264610743 0.4233667502947345 0.2975823095891836 1:4 2:6 3:5 4:4 5:5 6:4 7:4 8:5 9:6 10:1 13:2 14:8 15:8 16:4 17:5 18:10 19:6 20:1 
-0.1283942538445913 -0.078610471719105 -0.1155421675726884 -0.181816920583425 -1 -0.08357591903603988 -1 -0.6742865466156738 -0.2458902652015945 0.1148699762393346 0.2343260942586221 0.1384692807169738 0.1416202864297533 0.3623063799117408 0.2836454457101927 0.09050947962358974 0.09120609758007259 0.369269604923299 0.1568984336902688 0.1925589692947387 0.1599424411785424 0.1589660585597869 0.7230585170728711 0.3085616022877635 0.1292347738046313 0.1785027069667348 0.218078288193425 0.1687147115469304 0.1941296427797521 0.1495707367309534 0.1290999105205293 1:3 2:6 3:5 4:6 5:6 6:5 7:5 8:5 9:6 13:2 14:6 15:8 16:6 17:4 18:9 19:7 20:5 
-0.3504066596826045 -0.2500377681010269 -0.300156818607786 -0.2980685527742264 -1 -0.2452400799707484 -1 -1 -0.4305695815684973 0.3860649668329488 0.543861959888004 0.3855170786206844 0.4261443784464278 1 0.8738784444373673 0.2658363766216144 0.2658287298431938 0.7175832600592624 0.4549171377819172 0.4586295127961734 0.5221365092211413 0.422397724872859 1 0.541322665956479 0.3760773906970833 0.5551667786788574 0.6460410616247553 0.5727926633217902 0.4202920469064085 0.4164263426866937 0.3024992537241489 1:4 2:6 3:4 4:4 5:5 6:5 7:4 8:4 9:6 14:4 15:9 16:5 17:4 18:6 19:9 20:5 
-0 -0 -0 -0 -0.001423865077591441 -0 -0.4515413409827939 -0 -0 0 0 0 0 0 0 0 0 0 0 0 0 0 0 0 0 0 0 0 0 0 0 1:5 2:6 3:4 4:4 5:5 6:5 7:4 8:4 9:7 13:1 14:4 15:9 16:6 17:4 18:6 19:9 20:5 
-0 -0 -0 -0 -0 -0 -0.2143291167065597 -0 -0 0 0 0 0 0 0 0 0 0 0 0 0 0 0.6017529047736557 0 0 0 0 0 0 0 0 1:5 2:6 3:5 4:6 5:6 6:5 7:5 8:5 9:6 12:2 13:6 14:9 15:6 16:4 17:9 18:8 19:5 
-0.6028595963286226 -0.3560769992266615 -0.2892116870526958 -0.9295265132373165 -0.306997919286037 -0.3892443969738333 -0.2594993696076129 -0.2088498739806667 -0.3331622510136318 0.4427223600462878 0.4354440368837874 0.5968646980536509 0.5405260686724129 0.3646951399156169 0.335647904691959 0.2539462056934083 0.2549687117939822 0.4964036090129776 0.441057562616697 0.4319221605862911 0.4869190902446106 0.4032922674568202 0.5918694012613267 0.7598301025018156 0.3668317622820169 0.5062880959369753 0.4159439911401995 0.4693874989442236 0.5325647947432167 0.4254795277783979 0.6462665438026557 1:5 2:6 3:4 4:3 5:5 6:4 7:4 8:3 9:6 12:1 13:3 14:8 15:6 16:4 17:6 18:8 19:4 
-0 -0 -0 -0 -0 -0 -0.1329966938225705 -0 -0 0 0 0 0 0 0 0 0 0 0 0 0 0 0.1577716919194377 0 0 0 0 0 0 0 0 1:5 2:6 3:5 4:6 5:6 6:5 7:5 8:5 9:6 13:2 14:6 15:9 16:6 17:4 18:9 19:8 20:5 
-0.4629639050463077 -0.3259763427900784 -0.4115563847915866 -0.5295814744753806 -0.93368064464026 -0.3704946465050999 -1 -0.4169794447647863 -0.54130274073383 0.5039993316391802 0.6630309682970551 0.6438742422495537 0.6593510544571449 0.6668407231152559 0.7290615433905473 0.4051481465005438 0.4069757073129672 0.5737058205319129 0.7032932850070306 0.6745177301710291 0.6727499187927108 0.6280315422631032 1 0.5268636179565827 0.5797451459582251 0.7936075406581445 0.6462645292324758 0.7507350503189884 0.6117946968885242 0.6596578856844102 0.5321283371525096 1:5 2:6 3:5 4:6 5:6 6:5 7:5 8:5 9:6 12:2 13:6 14:9 15:6 16:4 17:9 18:8 19:5 
-0.5203601178735568 -0.3337786172173015 -0.4293731747676243 -0.5146449751106834 -0.6930592131235156 -0.3553903213346624 -0.5840866422758217 -0.3666808602840959 -0.6233900050506078 0.5232499628924083 0.7764243194813392 0.6619058406063407 0.6304848681588517 0.7678042899733197 1 0.4185413570169209 0.4194947819543325 0.8040183408195762 0.7611184983026316 0.7522556857133228 0.7227755469846032 0.6571350888924041 0.6656522405736609 0.6310443962853767 0.5935064464398576 0.947457228200168 0.8038449668032859 0.8127067091478759 0.6937119226390525 0.6552966849113636 0.5347018524831336 1:2 2:3 3:2 4:6 5:4 6:4 7:4 8:4 9:6 14:2 15:8 16:8 17:4 18:3 19:6 20:4 
-0 -0 -0 -0 -0 -0 -0.09500724860614979 -0 -0 0 0 0 0 0 0 0 0 0 0 0 0 0 0 0 0 0 0 0 0 0 0 1:5 2:6 3:4 4:4 5:5 6:5 7:4 8:4 9:7 12:1 13:4 14:9 15:6 16:4 17:6 18:9 19:5 
-0 -0 -0 -0 -0 -0 -0.9957711538982527 -0 -0 0 0.07957338344856602 0 0 0 0 0.008772571567061196 0.008671787950905483 0 0.01325089700527545 0.01279458427328019 0 0.0161932200254705 0.2221519487047799 0 0.009429557534153692 0.02556138564672574 0 0.0282164190661665 0 0 0 1:5 2:6 3:4 4:4 5:5 6:5 7:4 8:4 9:7 12:1 13:4 14:9 15:6 16:4 17:6 18:9 19:5 
-0 -0 -0 -0 -0.0006195799318343554 -0 -0 -0 -0 0 0 0 0 0 0 0 0 0 0 0 0 0 0 0 0 0 0 0 0 0 0 1:7 2:8 3:5 4:5 5:6 6:6 7:5 8:4 9:7 12:7 13:3 14:4 15:9 16:6 17:4 18:6 19:9 20:5 
-0.3350105567100903 -0.1680530095734233 -0.2154895394060357 -0.2353500053898878 -0.6767778768276592 -0.2191889224319413 -0.2400354071040225 -0.1956553606604751 -0.2858514850002521 0.5264051958341671 0.379119591601857 0.5347975108913852 0.6264355490356068 0.3655588895873164 1 0.2280327769353906 0.2336783366399154 1 0.2718026524151421 0.2729496423264625 0.3854480359980199 0.3215137765431551 0.2184516965090854 0.4091431481012697 0.3394571140473719 0.3900139250485118 0.6288815687909602 0.386719666385774 0.4524812753673704 0.4716512363734311 0.362770791104748 1:3 2:3 3:2 4:5 5:4 6:4 7:4 8:4 9:6 12:1 13:4 14:9 15:6 16:4 17:4 18:5 19:2 
-0.4138489042934906 -0.2549701966268869 -0.3275725753443982 -0.3899228088501079 -0.5026720711911082 -0.2871655206383047 -0.4004756424711504 -0.2793752611871803 -0.43107536634563 0.4084211924615883 0.5875432275300947 0.5785288722455354 0.5388204066863586 0.6182096573327402 1 0.3220633886449474 0.3208425527979186 0.8105862177870163 0.5705327399784249 0.5987033235506728 0.6693479657633351 0.4956021774579708 0.6203337288724079 0.4624865014993433 0.4551937687811857 0.6594732502543367 0.7494080743685076 0.6013038895486319 0.5199669109571644 0.5117448868408766 0.4343936272835667 1:4 2:4 3:4 4:7 5:6 6:6 7:6 8:5 9:7 12:4 13:6 14:9 15:9 16:6 17:4 18:4 19:5 20:2 
-0.4498738402596391 -0.2927289147217728 -0.3754486878822766 -0.4297766919140714 -0.4247066482837552 -0.329037484135154 -0.553047591693182 -0.2941289981120652 -0.4914796042066971 0.4786797891253156 0.6483621630302036 0.5733377659015079 0.5857699891506826 0.7641067781676093 0.648978598245721 0.3672018574613272 0.3695584735778223 0.7828239510525192 0.6313997841179445 0.6536069553309946 0.6074212619433786 0.5827198722232853 0.6848311492812764 0.5222136344153384 0.5244912507731343 0.7299188965264948 0.609830770218375 0.7602056513964243 0.570101874570731 0.5922588137408606 0.4711794676288862 1:5 2:7 3:6 4:6 5:7 6:7 7:7 8:6 9:7 12:4 13:4 14:8 15:9 16:8 17:4 18:5 19:9 20:6 21:1 
-0.575139440627388 -0.3737281418273675 -0.4849125976661677 -0.6546770603552987 -0.5505168612859639 -0.4383084159536325 -0.4969973813801122 -0.3904952172994767 -0.6299122672281984 0.6113578254655593 0.8081500221674004 0.7309850876641951 0.7506093546764636 0.8810210864922954 0.8198851284849837 0.469799941979317 0.4717507638034865 0.8351483668198765 0.7993169376288665 0.7924538294188557 0.7793405374598128 0.7318490413217713 0.7404511994513823 0.8096956224490803 0.6706212012013925 0.9300135595233847 0.770417306622759 0.8676634974840486 0.7856302292111599 0.7571640071064809 0.6239805601844236 1:7 2:8 3:5 4:5 5:6 6:6 7:5 8:4 9:7 12:7 13:3 14:4 15:9 16:6 17:4 18:6 19:9 20:5 
-0 -0 -0.02002083507286242 -0 -1 -0 -1 -1 -0.1037648406721806 0 0 0 0.009411505740587885 0.4341118355096481 0.3845950887062838 0 0 0.4065786609740919 0 0 0.1680382821763325 0 1 0.1218642657661521 0 0 0.1800017855904888 0 0 0 0 1:4 2:6 3:4 4:4 5:5 6:5 7:4 8:4 9:5 13:4 14:8 15:6 16:4 17:6 18:8 19:5 
-0.08331005374941197 -0 -0 -0.102601618856254 -0 -0 -0 -0 -0 0 0 0 0 0 0 0 0 0.1522684288082036 0 0 0 0 0 0.06733323348567816 0 0 0 0 0 0 0.0608941517499962 1:3 2:3 3:2 4:5 5:4 6:4 7:4 8:4 9:6 13:1 14:4 15:9 16:6 17:4 18:4 19:5 20:2 
-0.04746543867070301 -0 -0 -0 -0.5603477089891499 -0 -0.9310282532155968 -0.5607950012666498 -0 0.03861536614964198 0 0 0 0 0.01054345734566736 0 0 0.3392761040986387 0 0 0 0 0 0.0611327752293977 0 0 0 0 0 0 0 1:3 2:5 3:5 4:4 5:5 6:4 7:4 8:4 9:6 13:2 14:7 15:8 16:4 17:4 18:8 19:6 20:1 
-0.2041722099471457 -0.1095196635397317 -0.1185790208439117 -0.3380685447787996 -0.1172295442653212 -0.1322822388849521 -0.9931645174114364 -0 -0.151100454044737 0.1552305297724889 0.2609104806720885 0.26196698596561 0.2159506794592169 0.04786105512148148 0.03414994365240104 0.1350413222884271 0.1363956160625761 0.1991245405374452 0.2231383240087638 0.2044716333242417 0.1941710401936442 0.2080024994267163 0.9032662244269655 0.319285934087391 0.1935860687371772 0.2486531220659985 0.1259104508296048 0.2103501567217239 0.2106043870885963 0.2161116446163927 0.2598872640692828 1:5 2:6 3:4 4:4 5:5 6:5 7:4 8:4 9:7 13:1 14:4 15:9 16:6 17:4 18:6 19:9 20:5 
-0.4067775876924981 -0.2755078228022316 -0.3539970487619584 -0.3835957798406635 -0.367179559879991 -0.3167934346072694 -0.6383133288603778 -0.0271774233098806 -0.4354036924041625 0.4618309751855056 0.6115297721422701 0.5494580030448045 0.5696271476224444 0.6515002549907437 0.5870531933792986 0.355468865781723 0.3570480937224492 0.5392206506974859 0.6057458389179284 0.5899250931816566 0.580737790134066 0.5494100225713439 0.9789045627719057 0.4488911677920101 0.507572098823919 0.7068637967996102 0.5638608782365363 0.7054049542698049 0.5249127124028026 0.5730685995154143 0.4446556643578591 1:5 2:6 3:5 4:6 5:7 6:5 7:5 8:6 9:6 13:2 14:6 15:9 16:6 17:4 18:9 19:8 20:7 
-0.122132146450179 -0.03050645861422738 -0.09497660925148399 -0.02538200694177228 -0.5252243316346829 -0.03147299752976938 -1 -0.1453810986793976 -0.1390992864547423 0.12196903809093 0.1883287626159636 0.07830782047413004 0.08076952845589734 0.3647710363063914 0.1219689196294732 0.07775028105806003 0.0785872272459632 0.4497646701323075 0.1252256062755979 0.1230931216055827 0.1855179208885594 0.1233652131608761 0.7828173075394125 0.2344152301844752 0.1091836265302152 0.1521562076430334 0.1595452899121183 0.1505970684169473 0.1943727174952806 0.1111651344949726 0.07527525806153539 1:4 2:6 3:5 4:4 5:5 6:5 7:5 8:5 9:6 12:2 13:5 14:9 15:6 16:4 17:8 18:7 19:4 
-0.604630476797924 -0.4102720185720438 -0.5266138402256214 -0.6113345480764811 -0.7527310170590619 -0.4583985213494339 -0.596312048474626 -0.4645614337435033 -0.7832380721556298 -0.8856230054223783 0.8259920430883112 0.9679359558134926 0.7226274683253462 0.8316121831097306 0.8976591881412375 0.3364505079591215 0.435534360906444 0.8929511488180967 0.9445219967621404 0.9697821223207086 0.8841156340549856 0.7262000290131543 0.4746581347036838 0.8636376294536937 0.4015670900726917 1 1 0.8418790884778925 1 0.9989387772163835 0.6782107754889003 4:5 5:2 6:2 7:2 8:3 9:4 14:3 15:6 16:3 17:2 18:2 19:2 
-0.6704196344405489 -0.3768350610081944 -0.4824470646892284 -0.5553417829089097 -0.5835132781655257 -0.423501560112435 -0.54774909436869 -0.4264556602893116 -0.5881828256041691 -0.7222258391277381 0.7210228176181304 0.621000692278417 0.6375134031590253 0.7423445779881681 0.7112153416787983 0.5418074366381398 0.4428592057103952 0.7219815329688364 0.6918519743307197 0.678736280437907 0.7003276553526537 0.6572419173142831 1 0.4666623545637674 0.5459196832571528 0.794273139103126 0.5666095306550698 0.7498415622620005 0.6470312517762679 0.7024406400861726 0.1159961566321549 4:4 5:2 6:1 7:1 8:1 9:3 14:4 15:2 16:2 17:2 18:1 19:1 
-0 -0 -0 -0 -0 -0 -0 -0 -0 -0.00428779126669957 0 0 0 0 0 0 0 0 0 0 0 0 0 0 0 0 0 0 0 0 0 1:3 2:6 3:5 4:2 5:2 6:2 7:2 8:3 9:5 13:3 14:7 15:5 16:3 17:3 18:4 19:3 20:2 
-0 -0 -0 -0 -0 -0 -0 -0 -0 -0 0 0 0 0 0 0 0 0 0 0 0 0 0 0.2219530877199244 0 0 0 0 0 0 0.134614671198101 4:5 5:2 6:2 7:2 8:2 9:5 11:1 12:3 13:5 14:3 15:2 16:2 17:2 18:1 21:1 
-0.2336532500600784 -0 -0 -0.0337211872460136 -0 -0.1422983013254916 -0 -0.004017132021227224 -0 -0 0 0 0.01496595931025351 0 0 0 0 0 0 0 0 0 0 0 0 0 0 0 0 0 0.09296069646196937 1:3 2:6 3:5 4:2 5:1 6:2 7:2 8:3 9:5 14:2 15:7 16:5 17:3 18:3 19:4 20:3 21:2 
-0.1893123300238053 -0.1230564585278223 -0.1571798989192561 -0.1809949969684444 -0.1865962272602985 -0.138315742594786 -0.1791635308043049 -0.1380563822289712 -0.1277278729345652 -0.2327513911018043 0.2335502918170055 0.1443716808364936 0.2863882623602212 0.2195249873730865 0.2282065155273827 0.4993334075937586 0.5244122922301386 0.3576918074844219 0.2115318023139398 0.1665576237774878 0.1886304010952495 0.1877730623853109 0.9866031079019894 0.04021257104442581 0.2810391426212926 0.2262154005029505 0.1873671494742425 0.2435998489371024 0.2149502061866025 0.1986468326860594 0.2361457869504098 4:4 5:2 6:2 7:2 8:2 9:4 12:3 13:5 14:3 15:2 16:2 17:1 
-0.5096135604493194 -0.3410575542215532 -0.4307843162250398 -0.4948359272847352 -0.5303116741370002 -0.3765763954315909 -0.4871299468698119 -0.3787270572959061 -0.7525431827247985 -0.6581486468957136 0.6333080765321386 0.758924304011217 0.5941068457838118 0.7195339198337456 0.6533045674293523 0.3804844795482037 0.3516313167117893 0.7182799824988567 0.6689861145107439 0.7579611260048088 0.7166417156698009 0.6599772254237642 0.5973300315033414 0.9989055963856012 0.5300514893225717 0.8355947066902583 0.8244042231962534 0.6711102344586037 0.9161515475453393 0.650030625234667 0.9785842324916502 4:5 5:2 6:2 7:3 8:4 9:5 12:3 13:5 14:4 15:2 16:2 17:4 18:1 
-0 -0 -0 -0 -0 -0 -0 -0 -0 -0 0 0 0 0 0 0 0 0 0 0.0056887703262282 0 0 0 0 0.1711838359433263 0 0 0 0 0 0.174574064371508 4:6 5:2 6:2 7:2 8:2 9:4 13:3 14:6 15:3 16:2 17:2 18:1 19:1 
-0 -0 -0 -0 -0 -0 -0 -0 -0 -0.001602602397300413 0 0 0 0 0 0 0 0 0 0 0 0 0 0 0 0 0 0 0 0 0 4:5 5:2 6:2 7:2 8:2 9:4 14:3 15:6 16:3 17:2 18:2 19:1 
-0.5334298608876238 -0.330234337218551 -0.2378187280657398 -0.28827112374718 -0.4544343590641644 -0.2013451701899296 -0.06951560601537596 -0.1715970981038282 -0.2906598476181246 -0.3699206789245814 0.2241162796920839 0.4067791617554129 0.4460443618534782 0.2870618306226383 0.3579596449920584 0.2729326036834678 0.2296037896242286 0.3450299306300968 0.3418581859238158 0.3316834140761746 0.2673274314199036 0.2954426318752186 0.2980155431380251 0.3270530647461873 0.4636477265621649 0.3544574866115999 0.3662466251882315 0.3527029115121156 0.9148269801480247 0.5048224541250077 0.5152062146356249 1:2 2:6 3:4 4:2 5:1 6:2 7:2 8:3 9:5 14:2 15:7 16:5 17:3 18:3 19:3 20:3 21:1 
-0.2845011025003291 -0.2282732701364808 -0.2302290836428167 -0.3022575741445133 -0.2930142172029269 -0.2021743435815103 -0.4523551423701557 -0.261114604829808 -0.3360492357108996 -0.3961763465586047 0.4563660320059763 0.2641409436303555 0 0.5693447972142295 0.3965399375601985 0.1821793653035857 0.1761011490201466 0.3224391701474217 0.3606254704917562 0.3526453293541705 0.3526627068457149 0.3368029687160242 0.3633679579469874 0.4880984926784858 0.2666541373280163 0.6547639013483364 0.3722551512209981 0.3875062706038395 0.3392418501709548 0.2946998508229292 0.3012677219167162 1:3 2:5 3:4 4:2 5:3 6:3 7:3 8:5 9:4 11:1 12:3 13:5 14:7 15:3 16:3 17:4 18:4 19:3 21:1 
